%YAML:1.0
opencv_ml_svm:
   format: 3
   svmType: EPS_SVR
   kernel:
      type: LINEAR
   C: 1.0000000000000000e-02
   p: 1.0000000000000001e-01
   term_criteria: { iterations:100 }
   var_count: 576
   sv_total: 1
   support_vectors:
      - [ -3.61510855e-03, -8.81568249e-03, -8.11268575e-03,
          -6.64732046e-03, 6.23018786e-05, -1.89611074e-02,
          -1.37857907e-02, -1.34677002e-02, -7.13203987e-03,
          -3.21138976e-03, -1.99127831e-02, -9.54091270e-03,
          -4.65647969e-03, 1.77146774e-02, 2.35381699e-03,
          8.80754367e-03, 9.42689646e-03, 9.56573058e-04, 4.03428776e-03,
          -1.83125846e-02, -1.24856848e-02, 1.03235456e-04,
          1.03389751e-03, -1.90631188e-02, -6.16138219e-04,
          -8.02647788e-03, 1.18703197e-03, 2.58449595e-02,
          -2.19748542e-02, -2.62584202e-02, -2.86098011e-03,
          2.45219674e-02, 1.05977077e-02, 4.48851809e-02, 2.70067267e-02,
          3.73989493e-02, -1.57821905e-02, -2.22213957e-02,
          -1.87965892e-02, -9.79552697e-03, -1.08234836e-02,
          -2.33025150e-03, -1.87180960e-03, -5.02350926e-03,
          -1.56331826e-02, -8.02597124e-03, -9.14157368e-03,
          5.38562983e-03, -4.94405488e-03, -1.24711283e-02,
          -9.51183215e-03, -1.40758846e-02, -2.31406484e-02,
          -1.23773068e-02, 2.57643708e-03, -2.59346366e-02,
          -3.03606484e-02, -9.64032300e-03, 5.21910470e-03,
          9.82466806e-03, 2.54137907e-02, 1.47589901e-02, 1.66430231e-02,
          1.49146682e-02, 8.96193925e-03, 3.44245546e-02, 1.92770101e-02,
          3.88513990e-02, 2.22257003e-02, 1.64509714e-02, 1.46727543e-02,
          1.52962459e-02, -8.01717211e-03, -1.05305982e-03,
          4.98182653e-03, -1.08881239e-02, -2.12391224e-02,
          -5.01216995e-03, -9.95573122e-03, -1.27176587e-02,
          -5.06661087e-03, -1.70514472e-02, -9.38365888e-03,
          -1.14609674e-03, -1.72717590e-02, -1.91875696e-02,
          -1.13910595e-02, -1.99098848e-02, -1.28284311e-02,
          -1.31834159e-02, 1.66601520e-02, 2.31066272e-02,
          3.86531912e-02, 2.35679969e-02, 2.41630692e-02, 1.30390851e-02,
          2.54295743e-03, 7.57470122e-03, 1.75640602e-02, 8.40149820e-03,
          1.48961665e-02, 2.61763502e-02, 8.85312539e-03, 1.49545318e-03,
          8.06071039e-04, -1.20702982e-02, -1.84426624e-02,
          -2.42457259e-04, -6.57419022e-03, -9.19768214e-03,
          -4.06351360e-03, -1.18572693e-02, 1.71976760e-02,
          -1.54928048e-03, -4.90445504e-03, -3.02511803e-03,
          -5.78914369e-05, -5.38645359e-03, -1.71218682e-02,
          -1.89856384e-02, -1.58619303e-02, 6.95558079e-03,
          -1.13175390e-02, -1.34807574e-02, -1.11603998e-02,
          -1.79715501e-03, 2.02292018e-02, 2.37961989e-02,
          3.00301854e-02, 1.45723997e-02, 3.79469059e-02, 6.18241122e-03,
          -1.23167997e-02, -1.45878252e-02, 1.18760606e-02,
          8.56674183e-03, 3.75398272e-03, 5.48115931e-03,
          -4.40330757e-03, 1.64683033e-02, -2.17539426e-02,
          -2.17006188e-02, -1.94313079e-02, 8.26340634e-03,
          -1.73630025e-02, -1.82971396e-02, -1.29284561e-02,
          -3.23629216e-03, -1.85715314e-02, -1.94162838e-02,
          -7.11352006e-03, -1.19609172e-02, -2.18119714e-02,
          8.27699713e-03, -1.32092619e-02, -1.85354371e-02,
          -8.49144161e-03, 6.58689882e-04, -1.42975163e-03,
          3.29381898e-02, 1.59970243e-02, 1.18106222e-02,
          -1.08641265e-02, -1.26381610e-02, -1.02903694e-02,
          -1.00171426e-02, -2.34857630e-02, -1.02445632e-02,
          -3.33829690e-03, -2.09445274e-03, -1.60750784e-02,
          2.05180645e-02, 1.14843156e-02, 5.23397652e-03, 6.22578058e-03,
          2.79457332e-03, -6.16891659e-04, 3.35924886e-02,
          3.40504795e-02, 2.86997221e-02, -1.78667493e-02,
          -3.82410772e-02, -3.46259139e-02, -2.02796608e-02,
          -1.80479120e-02, -2.32968666e-03, 8.89166910e-03,
          -2.69416580e-03, -1.41824456e-02, -1.63523331e-02,
          -2.14071386e-03, 1.37955761e-02, 1.13652200e-02,
          9.47178714e-03, 1.35269426e-02, 1.40706422e-02,
          -3.75763513e-03, -1.83123685e-02, 4.58701805e-04,
          -7.48136954e-04, 2.97349668e-03, -1.78495119e-03,
          -1.72727983e-02, -2.79229670e-03, 1.10106757e-02,
          1.00570107e-02, 3.30964942e-03, 1.28935315e-02, 1.91364624e-02,
          3.83086503e-02, 3.16855311e-02, 2.82567367e-02, 2.55292170e-02,
          3.65586691e-02, 2.32960507e-02, 5.70499944e-03,
          -1.08133135e-02, 5.27590793e-03, 1.88564733e-02,
          1.28851309e-02, -2.45249085e-03, 8.21683265e-04,
          -2.97004986e-03, -8.81634466e-03, -1.21754119e-02,
          -1.10326521e-02, -5.16272848e-03, 1.85592624e-03,
          -2.63083261e-03, -3.31805348e-02, -1.47132212e-02,
          -3.14820409e-02, -2.71379389e-02, -2.19238307e-02,
          9.84184258e-03, 2.24252865e-02, 3.40036564e-02, 2.20632777e-02,
          1.44448336e-02, 1.28402468e-02, 2.85402015e-02, 2.39039380e-02,
          2.84772413e-03, 8.48931074e-03, 1.17585445e-02, 1.33759128e-02,
          -3.33493226e-04, -2.80941725e-02, -6.54518139e-03,
          1.73817505e-03, -1.04288931e-03, -3.39530967e-03,
          1.96497589e-02, 1.73858814e-02, 1.68478824e-02, 1.51096685e-02,
          1.59923844e-02, -2.65842280e-03, -2.08872873e-02,
          -1.28723197e-02, 2.18050904e-03, -1.55073935e-02,
          -9.27178655e-03, -5.63896773e-03, -1.00957863e-02,
          -1.34720234e-02, -3.16316262e-02, -3.41980346e-02,
          -2.97417175e-02, -2.42260769e-02, 3.66929844e-02,
          3.21024321e-02, 2.50081867e-02, 1.25521189e-02, 1.88210476e-02,
          3.89433140e-03, 1.91635508e-02, 2.15502679e-02, 2.54355632e-02,
          -1.37920836e-02, -1.35492254e-02, -7.83186313e-03,
          -8.39081034e-03, -3.49520706e-03, -1.44640850e-02,
          -7.26000918e-03, -9.91604198e-03, -2.26681251e-02,
          -9.74443101e-04, -7.16862734e-03, -6.64269784e-03,
          -1.39455954e-02, -2.53470074e-02, -1.12731215e-02,
          -3.19222221e-03, -3.75216338e-03, -3.36249615e-03,
          3.32354605e-02, 3.16679999e-02, 3.68272066e-02, 8.45201779e-03,
          5.16567193e-03, -1.05476612e-02, 1.19414739e-02,
          1.45743433e-02, 3.04105189e-02, -1.27452565e-02,
          -5.59568359e-03, -6.19085180e-03, -1.22820111e-02,
          -2.57065427e-02, -1.93479266e-02, -2.02245768e-02,
          -1.91371590e-02, -1.26772420e-02, 1.32872704e-02,
          1.47602279e-02, 1.08919488e-02, 1.16393780e-02, 1.76223516e-02,
          -1.18953921e-02, -3.08988765e-02, -2.35291328e-02,
          7.12654367e-03, 2.41469033e-03, 1.95156280e-02, 3.09831463e-02,
          -3.31835705e-04, -2.82833669e-02, -1.90543644e-02,
          -4.60762717e-03, -1.71454065e-03, 2.39678659e-03,
          1.02965385e-02, 2.69691888e-02, 4.45928499e-02, 3.00069600e-02,
          1.97275542e-02, 1.79541875e-02, 3.54686640e-02, 2.79639065e-02,
          1.17209116e-02, -9.93459672e-03, 1.81120494e-03,
          8.94710328e-03, -4.60305670e-03, -2.66641900e-02,
          -2.70212572e-02, -4.31696884e-02, -3.14003229e-02,
          -1.89316459e-02, -6.88568363e-03, 9.50011052e-03,
          1.66557115e-02, 1.07427714e-02, 1.11268146e-03, 2.77961255e-04,
          -1.04671540e-02, -1.02294434e-04, -5.39107947e-03,
          7.44165014e-03, 2.33771726e-02, 3.60381566e-02, 2.68870220e-02,
          2.53140181e-02, 1.54666333e-02, 3.11185326e-02, 2.91012302e-02,
          6.16631284e-03, 4.17773146e-03, -3.25285597e-03,
          -5.87985758e-03, -9.20685101e-03, -1.35866432e-02,
          4.23298730e-03, 1.69051625e-02, 1.57718193e-02, 7.01205153e-03,
          -1.05839008e-02, -9.43660084e-03, 2.84769852e-03,
          8.64502881e-03, 1.24060996e-02, 1.05885128e-02, 2.10170560e-02,
          1.83309428e-02, -3.98929231e-03, -2.80080978e-02,
          -3.98678258e-02, -4.88829650e-02, -2.49280073e-02,
          -1.87478606e-02, -6.69508008e-03, 2.01809150e-03,
          -4.27763583e-03, -1.46511709e-02, 2.27607638e-02,
          1.55907469e-02, 8.66919383e-03, 9.98845906e-04, 1.84826273e-02,
          1.76810250e-02, 3.56488042e-02, 3.40884998e-02, 2.09285188e-02,
          -1.86048187e-02, -1.07806446e-02, -8.07962660e-03,
          -6.40933402e-03, -3.51564446e-03, -3.41946119e-03,
          -2.40732799e-03, -6.36275159e-03, -2.76140291e-02,
          1.49648013e-02, -5.58003364e-03, -1.25043802e-02,
          -4.65637026e-03, 1.74373444e-02, 1.18779400e-02,
          3.09046898e-02, 1.15698650e-02, 1.39197139e-02,
          -9.56383441e-03, -1.20617533e-02, -1.21044256e-02,
          -1.05731925e-02, -6.30588550e-03, -7.48057431e-03,
          -9.96310171e-03, -1.43330134e-02, -1.74815841e-02,
          -1.78638159e-03, 7.99927581e-03, 1.05297556e-02,
          -4.45902580e-03, 6.62424718e-04, -1.03631103e-02,
          -1.66431908e-02, -1.91738009e-02, -4.64569591e-03,
          1.49220247e-02, 2.43898407e-02, 2.31534801e-02, 8.88894405e-03,
          3.75413783e-02, -6.93072332e-04, -2.65428256e-02,
          -2.42887903e-02, 7.70117203e-03, -7.12147728e-03,
          -1.03067765e-02, -1.59365293e-02, -1.74053703e-02,
          2.76665948e-03, -9.24720429e-03, -7.87188765e-03,
          -1.09697497e-02, -5.54405712e-03, 3.26970685e-03,
          -3.00056348e-03, -5.12926513e-03, -1.41440397e-02,
          2.15151031e-02, 1.85510056e-04, -1.31169371e-02,
          -9.11257416e-03, 6.45765197e-03, 5.30482642e-03,
          1.97311286e-02, 2.41819341e-02, 5.38177928e-03, 7.66346045e-03,
          1.19217257e-04, -1.94593295e-02, -1.86315402e-02,
          -2.37947446e-03, 1.18173501e-02, 2.44509112e-02,
          2.92035136e-02, 1.73044335e-02, 2.84544155e-02, 1.35877412e-02,
          -1.61805842e-03, 8.76955595e-03, 1.56253241e-02,
          -2.18521035e-03, -5.45170298e-03, -9.19895153e-03,
          -1.31677259e-02, -1.52950585e-02, -1.10601028e-02,
          -1.73210986e-02, -8.79580341e-03, -2.78604985e-03,
          2.88104173e-04, 6.11869211e-04, -6.33097114e-03,
          -1.39267091e-02, -2.23616157e-02, -1.34052122e-02,
          -4.90236608e-03, -3.17551452e-03, -2.67612934e-03,
          1.17965220e-02, -9.52948700e-04, 5.84214740e-03,
          8.35316814e-03, 4.42554355e-02, 2.54909042e-02, 2.94231046e-02,
          2.17871182e-02, 1.53688053e-02, 8.07130896e-03,
          -1.82243232e-02, -3.29960808e-02, -1.23290075e-02,
          1.53489998e-02, 1.41123682e-02, 2.25680713e-02, 1.30300373e-02,
          1.99664719e-02, -4.78982599e-03, -6.30321912e-03,
          -2.09042081e-03, -1.17343822e-02, -7.22493930e-03,
          -2.98901065e-03, -5.52525325e-03, -5.96967293e-03,
          -1.08173881e-02, -1.66534502e-02, -2.23813113e-02,
          -2.64931116e-02, -2.19478682e-02, -2.43088640e-02,
          -9.73234884e-03, -8.10841378e-03, -8.93754419e-03,
          -1.60696991e-02, 3.52818109e-02, -6.65764557e-03,
          -9.69184563e-03, -2.63437349e-03, 2.60352958e-02,
          1.28501505e-02, 2.75899246e-02, 1.72077827e-02, 3.46789397e-02,
          1.58637371e-02, -2.36792769e-03, -1.09660788e-03,
          -7.24062650e-03, 1.23397252e-02, -9.81773529e-03,
          -1.02136303e-02, -9.31341574e-03, 8.42859223e-03,
          1.25130278e-03, -5.34792151e-03, -8.00140575e-03,
          -1.26065724e-02, 9.72672831e-03, -2.54119467e-03,
          9.75443050e-03, 3.18842474e-03, 3.75801721e-03,
          -9.26911179e-03, -1.28350584e-02, -1.69668812e-02,
          -1.89590063e-02, -5.41433413e-03, -2.13535279e-02,
          -2.05847528e-02, -2.02588700e-02, -9.73249506e-03 ]
   uncompressed_sv_total: 111
   uncompressed_support_vectors:
      - [ 1.67174309e-01, 1.54271424e-01, 1.64242357e-01, 1.42317474e-01,
          2.30145976e-01, 6.82990551e-02, 1.17950663e-01, 1.29862234e-01,
          1.56310618e-01, 1.07837625e-01, 1.11853562e-01, 1.90903664e-01,
          8.41531083e-02, 3.34750742e-01, 6.23238757e-02, 8.83534104e-02,
          1.40486851e-01, 1.52869985e-01, 1.76668510e-01, 1.01960450e-01,
          1.00044578e-01, 9.39194113e-02, 2.82334179e-01, 1.14035070e-01,
          2.15475172e-01, 1.54929295e-01, 1.90484598e-01, 1.11114904e-01,
          7.15127513e-02, 1.44589484e-01, 1.47637114e-01, 3.28853667e-01,
          1.36049539e-01, 2.09512129e-01, 1.63692251e-01, 1.66242987e-01,
          2.98175290e-02, 2.45031957e-02, 2.99419966e-02, 2.81545166e-02,
          9.91242453e-02, 2.78404392e-02, 1.03216097e-02, 1.51491854e-02,
          2.72826012e-02, 2.55058140e-01, 1.17970318e-01, 1.03968859e-01,
          2.19083577e-01, 2.51836747e-01, 1.21795885e-01, 1.45277500e-01,
          7.74397403e-02, 1.78350121e-01, 2.62943674e-02, 2.85171643e-02,
          3.04643605e-02, 5.08235581e-02, 1.81004211e-01, 6.38676658e-02,
          6.32162243e-02, 4.04606946e-02, 4.06959541e-02, 1.70102865e-01,
          2.03792229e-01, 1.53663278e-01, 2.81093568e-01, 3.11398000e-01,
          3.11398000e-01, 3.11398000e-01, 3.11398000e-01, 3.11398000e-01,
          2.11952150e-01, 5.82196787e-02, 4.72810343e-02, 1.42240807e-01,
          2.08105445e-01, 1.03109308e-01, 2.61410058e-01, 1.13095559e-01,
          1.62111670e-01, 4.12698276e-02, 1.27428528e-02, 1.12774270e-02,
          2.89140828e-02, 1.16592146e-01, 3.78809236e-02, 1.24310710e-01,
          6.81921616e-02, 6.28180727e-02, 1.42978743e-01, 1.71661615e-01,
          1.89424589e-01, 2.11433277e-01, 2.98127145e-01, 2.98127145e-01,
          2.98127145e-01, 2.98127145e-01, 2.92677134e-01, 4.57209460e-02,
          5.62440939e-02, 9.35641080e-02, 7.08741844e-02, 2.98127145e-01,
          9.56230015e-02, 1.25946000e-01, 1.00842938e-01, 9.06945467e-02,
          1.28444776e-01, 1.43479660e-01, 1.11050077e-01, 1.14708103e-01,
          1.89544320e-01, 1.02908112e-01, 1.20054223e-01, 1.50975302e-01,
          1.97501779e-01, 1.27080128e-01, 1.00764737e-01, 1.36733711e-01,
          1.17469296e-01, 1.00639686e-01, 1.11520223e-01, 1.66141018e-01,
          1.71366140e-01, 2.18277782e-01, 1.03295811e-01, 1.83293596e-01,
          1.44104138e-01, 1.29113644e-01, 4.81603265e-01, 1.29508838e-01,
          1.40115187e-01, 1.53450266e-01, 1.42261058e-01, 9.68369693e-02,
          1.77395001e-01, 1.75008535e-01, 1.49706855e-01, 1.61631644e-01,
          1.15209609e-01, 1.79564267e-01, 1.86563879e-01, 1.65330932e-01,
          8.42376351e-02, 8.02441761e-02, 1.37779012e-01, 7.64980018e-02,
          1.84110165e-01, 1.11575313e-01, 1.69145510e-01, 1.14756785e-01,
          1.05325475e-01, 8.55585709e-02, 9.33323726e-02, 1.17579080e-01,
          9.24833268e-02, 2.82681584e-01, 1.88548788e-01, 1.48786277e-01,
          1.05633490e-01, 1.14905059e-01, 8.52254778e-02, 8.64999965e-02,
          1.80989474e-01, 1.27424270e-01, 2.39927471e-01, 1.00482136e-01,
          1.93762556e-01, 2.01039016e-01, 9.45663676e-02, 3.15038413e-01,
          1.73598900e-01, 1.89552635e-01, 1.41299218e-01, 2.85745621e-01,
          3.01142037e-01, 1.47033304e-01, 1.31265238e-01, 1.99602693e-01,
          1.99580342e-02, 5.03892824e-02, 9.30346251e-02, 4.01121154e-02,
          8.60050842e-02, 4.27035950e-02, 3.48340161e-02, 1.98793728e-02,
          1.70918386e-02, 7.46922940e-02, 2.91868001e-01, 2.94702560e-01,
          1.81851432e-01, 2.74953693e-01, 2.94702560e-01, 2.94702560e-01,
          2.94702560e-01, 2.11481750e-01, 7.98449814e-02, 5.45208678e-02,
          1.21789701e-01, 5.15933186e-02, 1.01076201e-01, 3.25569063e-02,
          1.02118421e-02, 1.66001506e-02, 2.93386765e-02, 1.58258155e-01,
          2.23582774e-01, 2.94702560e-01, 1.36693344e-01, 2.94702560e-01,
          1.56045973e-01, 1.68183327e-01, 1.13428116e-01, 9.43055227e-02,
          3.81994098e-02, 1.78724796e-01, 2.06812158e-01, 1.11872517e-01,
          2.47449830e-01, 2.66949624e-01, 2.66949624e-01, 2.66949624e-01,
          2.05346093e-01, 1.73091330e-02, 5.24755195e-02, 8.23644102e-02,
          3.01916730e-02, 1.56131893e-01, 1.04991049e-01, 1.74684063e-01,
          1.34196669e-01, 5.49908988e-02, 5.52598312e-02, 9.72638652e-02,
          1.27695397e-01, 6.48882464e-02, 2.66949624e-01, 2.05300018e-01,
          2.66949624e-01, 2.65603513e-01, 1.45031407e-01, 2.26293933e-02,
          2.08482631e-02, 4.11853269e-02, 1.77228414e-02, 1.64849982e-01,
          1.71026543e-01, 2.66949624e-01, 2.07996637e-01, 1.02826089e-01,
          8.33617747e-02, 9.45775211e-02, 5.86125627e-02, 6.57189786e-02,
          3.30397904e-01, 1.54957607e-01, 1.72828123e-01, 1.17539927e-01,
          8.32177103e-02, 9.37021077e-02, 1.16339289e-01, 6.41052350e-02,
          6.37164488e-02, 1.79797143e-01, 3.41308378e-02, 8.61968771e-02,
          8.52758810e-02, 9.93939117e-02, 1.17792368e-01, 7.83556476e-02,
          9.61443782e-02, 7.72408098e-02, 4.80619043e-01, 3.48750174e-01,
          2.28663385e-01, 2.50734538e-01, 2.18867764e-01, 1.57868549e-01,
          1.13603733e-01, 5.92564084e-02, 7.14194104e-02, 2.55072325e-01,
          4.87453900e-02, 8.80787149e-02, 8.46022144e-02, 1.34947658e-01,
          2.53900308e-02, 2.21005641e-02, 2.32479721e-02, 2.55503673e-02,
          6.82543516e-02, 3.31623927e-02, 4.42325696e-02, 4.58142571e-02,
          2.35734135e-02, 2.88800567e-01, 4.07736786e-02, 3.96757498e-02,
          5.43260723e-02, 2.58239597e-01, 1.07854776e-01, 3.56507033e-01,
          1.55044988e-01, 1.87748671e-01, 4.45270650e-02, 3.21675166e-02,
          1.74272954e-02, 3.23767364e-02, 6.56546056e-02, 5.55832162e-02,
          5.93890548e-02, 2.98509058e-02, 3.57167162e-02, 3.17607433e-01,
          4.04376984e-02, 4.59509566e-02, 6.71790689e-02, 3.18725020e-01,
          1.93916515e-01, 3.60310525e-01, 3.60310525e-01, 3.22444469e-01,
          1.24171771e-01, 1.09216338e-02, 2.11036466e-02, 1.72389112e-02,
          8.02830085e-02, 6.10055663e-02, 1.96648389e-01, 1.04032144e-01,
          1.08398765e-01, 8.01741779e-02, 2.38500629e-02, 7.33535737e-02,
          4.73526530e-02, 3.00389647e-01, 6.97038099e-02, 1.22369289e-01,
          8.18919241e-02, 7.79369622e-02, 1.44187868e-01, 1.08995372e-02,
          1.62466355e-02, 1.43280867e-02, 6.69809133e-02, 1.78116903e-01,
          3.00389647e-01, 3.00389647e-01, 2.57199973e-01, 1.84357315e-01,
          4.43208776e-02, 1.06163129e-01, 5.25985435e-02, 3.00389647e-01,
          2.38128871e-01, 3.00389647e-01, 3.00389647e-01, 3.00389647e-01,
          7.07929358e-02, 2.59746369e-02, 7.18809292e-02, 7.35796615e-02,
          3.66533011e-01, 1.35182276e-01, 1.78979039e-01, 1.21764503e-01,
          1.06909752e-01, 4.81365994e-02, 2.38534212e-02, 3.66824716e-02,
          2.29286570e-02, 2.09752426e-01, 1.04592718e-01, 1.24726690e-01,
          1.10591501e-01, 1.18776202e-01, 1.98250011e-01, 5.15520498e-02,
          1.15755655e-01, 9.73323435e-02, 3.66533011e-01, 2.45256364e-01,
          3.66533011e-01, 3.64036709e-01, 2.05956668e-01, 4.65938002e-02,
          2.94651650e-02, 1.54558914e-02, 2.09399108e-02, 1.19607732e-01,
          7.84737840e-02, 2.50430644e-01, 1.06244244e-01, 2.77504846e-02,
          1.48289278e-01, 1.28037363e-01, 1.40031412e-01, 6.36283979e-02,
          3.56235296e-01, 1.82575241e-01, 1.32921234e-01, 2.03947291e-01,
          2.41836742e-01, 1.63560972e-01, 9.13378224e-02, 1.38126910e-01,
          9.14482921e-02, 2.10822463e-01, 7.43596405e-02, 1.18877687e-01,
          1.11548729e-01, 1.64132357e-01, 2.05080077e-01, 1.47881970e-01,
          1.21539436e-01, 5.98412231e-02, 2.35133111e-01, 1.54745802e-01,
          2.35488251e-01, 1.35335803e-01, 1.57199740e-01, 1.95356160e-01,
          8.77012312e-02, 1.64114103e-01, 1.19498931e-01, 1.82659283e-01,
          1.35917693e-01, 1.69712782e-01, 1.53227106e-01, 1.88612685e-01,
          1.44136652e-01, 5.27131446e-02, 3.66692990e-02, 5.51988147e-02,
          1.11464702e-01, 8.51554722e-02, 1.37462899e-01, 7.28713050e-02,
          1.03761829e-01, 2.03302607e-01, 9.87353995e-02, 9.76563767e-02,
          7.19114169e-02, 2.26806805e-01, 1.59946337e-01, 5.28814673e-01,
          3.49896669e-01, 3.05866361e-01, 1.15006045e-01, 1.75613854e-02,
          3.69287282e-02, 6.47104383e-02, 1.59348577e-01, 7.86865130e-02,
          1.47768766e-01, 1.88945621e-01, 1.52394801e-01, 1.02802455e-01,
          1.07625976e-01, 7.44891614e-02, 1.54171679e-02, 1.61435083e-01,
          1.05345309e-01, 1.67343095e-01, 1.72940239e-01, 1.38583615e-01,
          9.57812890e-02, 3.30201611e-02, 3.37852426e-02, 1.57201272e-02,
          3.56331728e-02, 1.36216521e-01, 3.18523854e-01, 2.90783793e-01,
          2.26556540e-01, 2.73399889e-01, 6.76655173e-02, 9.74496827e-02,
          4.45072651e-02, 1.51094750e-01, 3.08540136e-01, 3.69699419e-01,
          3.69699419e-01, 3.69699419e-01, 2.69231517e-02, 3.08808591e-02,
          2.87571326e-02, 9.16844420e-03, 3.61559726e-02, 1.95843875e-02,
          2.85467766e-02, 3.89067344e-02, 3.16052325e-02, 4.60450128e-02,
          2.82241944e-02, 3.81745249e-02, 1.28747979e-02, 6.80223107e-02,
          8.77494663e-02, 2.70638049e-01, 9.25976932e-02, 4.82836924e-02,
          9.72117409e-02, 1.97153520e-02, 2.83900779e-02, 2.30399184e-02,
          9.74791497e-02, 2.01853111e-01, 3.47921282e-01, 3.46719563e-01,
          9.85181406e-02, 2.78659612e-02, 1.20247416e-02, 5.76431444e-03,
          1.11500602e-02, 5.77678867e-02, 1.41445696e-01, 3.47921282e-01,
          2.20895767e-01, 1.84895210e-02, 2.44232100e-02, 1.59627683e-02,
          1.45537239e-02, 5.21639455e-03, 5.42954430e-02, 1.48044914e-01,
          3.47921282e-01, 2.30521321e-01, 4.80061918e-02, 3.49637680e-02,
          4.07249629e-02, 1.23556368e-02, 9.01797321e-03, 1.49474800e-01,
          1.62708372e-01, 3.47921282e-01, 3.19549739e-01, 1.09456882e-01,
          7.82144144e-02, 4.32630591e-02, 3.03230342e-02, 4.09943946e-02,
          1.30483121e-01, 1.69549912e-01, 3.53480875e-01, 1.75601318e-01,
          6.45844266e-02, 8.03554654e-02, 3.50083448e-02, 4.38966192e-02,
          3.91920395e-02, 6.37169182e-02, 7.44317174e-02, 6.66497946e-02,
          5.81561886e-02, 6.74498081e-02, 9.40554067e-02, 1.11821033e-01,
          3.95716839e-02, 5.03606051e-02, 4.62987274e-01, 2.28973731e-01,
          4.62987274e-01, 3.70479405e-01, 2.30549738e-01, 7.54735172e-02,
          3.72530296e-02, 1.78422872e-02, 3.48499231e-02, 7.85156637e-02,
          9.83929411e-02, 1.01607375e-01, 6.80340156e-02, 9.75646079e-02 ]
      - [ 2.17321709e-01, 1.07801236e-01, 8.82268250e-02, 3.26221846e-02,
          1.76490486e-01, 4.89736535e-02, 1.19957894e-01, 9.46512148e-02,
          2.32742622e-01, 1.90154761e-01, 6.22040331e-02, 1.33857012e-01,
          6.22531921e-02, 2.15723053e-01, 8.40869769e-02, 1.27927810e-01,
          8.83031860e-02, 2.01629981e-01, 2.19616070e-01, 1.56165943e-01,
          1.45492598e-01, 5.94270118e-02, 2.45018825e-01, 5.40929697e-02,
          1.77862242e-01, 1.92501858e-01, 2.50263304e-01, 2.47987628e-01,
          6.81926459e-02, 2.00054318e-01, 1.08155079e-01, 2.70861655e-01,
          9.64523107e-02, 1.95142701e-01, 1.66462764e-01, 2.72676408e-01,
          1.67384401e-01, 1.07046627e-01, 1.41470671e-01, 1.24222435e-01,
          2.07226381e-01, 5.28329685e-02, 9.28920135e-02, 9.15493891e-02,
          1.34138748e-01, 2.24694967e-01, 2.13560775e-01, 1.93888903e-01,
          1.35808364e-01, 2.09937558e-01, 5.53835556e-02, 8.40365440e-02,
          1.90609887e-01, 1.86938241e-01, 2.02725619e-01, 1.01496741e-01,
          1.60981223e-01, 1.48859277e-01, 2.68524796e-01, 1.04160599e-01,
          1.25355572e-01, 6.90049678e-02, 1.94533229e-01, 2.42741361e-01,
          1.60920411e-01, 1.49126872e-01, 1.16384558e-01, 2.96840042e-01,
          7.01749101e-02, 1.05372794e-01, 1.67642772e-01, 2.53737330e-01,
          1.76063552e-01, 1.73366532e-01, 1.73298821e-01, 1.08793788e-01,
          1.79956034e-01, 1.35524884e-01, 7.82356262e-02, 9.20358896e-02,
          1.45034999e-01, 1.57198370e-01, 1.24043025e-01, 1.87886015e-01,
          1.16306491e-01, 2.20945954e-01, 1.22423410e-01, 1.49591714e-01,
          1.09252185e-01, 1.38301343e-01, 2.04312354e-01, 1.59761146e-01,
          1.40344277e-01, 7.82937184e-02, 2.79300630e-01, 8.72218013e-02,
          8.37118179e-02, 1.22744463e-01, 2.41917208e-01, 1.83318987e-01,
          2.40895599e-01, 2.84355104e-01, 1.02116287e-01, 2.90607214e-01,
          8.63798410e-02, 1.58209920e-01, 6.93514496e-02, 1.78777933e-01,
          1.78132683e-01, 1.02149114e-01, 1.67638257e-01, 9.12253335e-02,
          1.95993602e-01, 7.28532821e-02, 1.55820653e-01, 1.67793512e-01,
          1.57724798e-01, 2.07808122e-01, 5.98673597e-02, 1.23708338e-01,
          2.83416249e-02, 1.67209327e-01, 1.11375384e-01, 1.53590724e-01,
          1.86980516e-01, 2.64521599e-01, 1.55497357e-01, 2.37749815e-01,
          2.92069018e-01, 8.43449384e-02, 2.08352447e-01, 4.36442681e-02,
          1.66072667e-01, 5.94009534e-02, 1.10024475e-01, 2.40938812e-01,
          2.11955994e-01, 2.07673445e-01, 8.52408782e-02, 1.81209430e-01,
          7.74403140e-02, 2.00955212e-01, 1.00178085e-01, 2.34437972e-01,
          5.66142350e-02, 2.90198307e-02, 3.40637043e-02, 3.28854732e-02,
          1.04162589e-01, 5.16648591e-02, 4.19558398e-02, 8.12408552e-02,
          7.22543821e-02, 1.08621016e-01, 1.41192256e-02, 3.03812064e-02,
          3.79277095e-02, 1.37838513e-01, 1.28932178e-01, 1.44104481e-01,
          2.01532573e-01, 1.46177575e-01, 1.04139753e-01, 6.42951727e-02,
          8.66235718e-02, 5.56947142e-02, 1.58502206e-01, 1.15677573e-01,
          1.14498459e-01, 1.57126680e-01, 9.11041722e-02, 3.26930374e-01,
          1.84185281e-01, 1.39914677e-01, 1.81047425e-01, 2.33368993e-01,
          3.18726450e-01, 3.88884038e-01, 3.88884038e-01, 2.61027724e-01,
          5.11935987e-02, 1.74237937e-02, 2.27589849e-02, 1.93561092e-02,
          4.19001430e-02, 4.16821577e-02, 6.93562403e-02, 6.59183934e-02,
          5.68651929e-02, 5.30426800e-02, 2.73665115e-02, 2.33797077e-02,
          1.60321873e-02, 4.46175076e-02, 1.64423790e-02, 2.13263109e-02,
          1.91177931e-02, 6.88163340e-02, 3.02742749e-01, 1.53053120e-01,
          8.48301128e-02, 8.87815431e-02, 8.48745853e-02, 1.45954385e-01,
          3.38113517e-01, 3.22319239e-01, 3.38113517e-01, 2.12845489e-01,
          1.81057155e-01, 1.31373078e-01, 5.12813069e-02, 1.89272821e-01,
          2.99827486e-01, 2.06085190e-01, 3.05055648e-01, 3.38113517e-01,
          4.72347587e-02, 3.48678567e-02, 2.76135746e-02, 1.21710915e-02,
          5.56942374e-02, 1.76493339e-02, 3.00522503e-02, 2.60785352e-02,
          7.04101548e-02, 4.54080366e-02, 4.45231833e-02, 3.93654481e-02,
          7.44401105e-03, 5.13165072e-02, 2.07959041e-02, 5.10283560e-02,
          3.36424895e-02, 5.70017248e-02, 2.17420936e-01, 2.09459662e-01,
          1.26196191e-01, 5.95120713e-02, 2.03643620e-01, 2.93463707e-01,
          2.88430721e-01, 3.02827984e-01, 3.34752738e-01, 2.78931260e-01,
          2.95277685e-01, 3.14833224e-01, 1.14815466e-01, 1.34031311e-01,
          5.51947914e-02, 2.15839595e-01, 2.40853906e-01, 1.96419731e-01,
          5.51568717e-02, 7.27322623e-02, 6.58583418e-02, 1.46135101e-02,
          8.75732675e-02, 2.04176959e-02, 8.01840052e-02, 5.44035435e-02,
          5.65637574e-02, 5.10606766e-02, 9.96288508e-02, 6.44407868e-02,
          3.81146893e-02, 8.66878703e-02, 1.46179143e-02, 8.74604583e-02,
          3.39230299e-02, 3.78854759e-02, 2.40413189e-01, 2.31346473e-01,
          3.03893626e-01, 1.22406505e-01, 3.38971794e-01, 4.30659875e-02,
          4.04688120e-01, 4.45452183e-01, 2.09337354e-01, 7.57768378e-02,
          9.10423100e-02, 7.04669878e-02, 5.11956923e-02, 2.51937717e-01,
          3.89483161e-02, 2.34713018e-01, 1.89126134e-01, 8.36134702e-02,
          1.31653100e-01, 1.34713933e-01, 1.96850970e-01, 6.37001768e-02,
          1.04852222e-01, 4.24089245e-02, 5.33032566e-02, 5.91657087e-02,
          6.27168193e-02, 3.20640564e-01, 3.20640564e-01, 3.20640564e-01,
          2.45210290e-01, 8.69442150e-02, 1.31356731e-01, 3.20640564e-01,
          2.42502183e-01, 1.64361328e-01, 1.30623162e-01, 1.16812885e-01,
          1.65873006e-01, 5.87744005e-02, 9.84707624e-02, 1.22926328e-02,
          1.04508661e-02, 2.30079722e-02, 8.12600777e-02, 1.97413802e-01,
          3.05208802e-01, 2.77303696e-01, 1.04472794e-01, 6.04160354e-02,
          3.43692228e-02, 2.99649499e-02, 2.89706271e-02, 9.03563425e-02,
          2.75948614e-01, 2.18422309e-01, 1.42066598e-01, 1.04291700e-01,
          6.99829683e-02, 8.62576440e-02, 2.58359641e-01, 1.53321937e-01,
          2.94342577e-01, 2.14084178e-01, 2.27865949e-01, 2.35718325e-01,
          6.87152743e-02, 2.12564155e-01, 2.26077497e-01, 1.65436149e-01,
          2.76438236e-01, 2.94342577e-01, 1.00919068e-01, 1.16260156e-01,
          1.00672595e-01, 4.26771417e-02, 6.56839162e-02, 2.39557177e-02,
          2.72784997e-02, 2.83567160e-02, 1.08981118e-01, 1.16237402e-01,
          1.47112563e-01, 1.86270967e-01, 6.03875406e-02, 1.37393519e-01,
          3.82215977e-02, 4.16890159e-02, 8.54920521e-02, 2.26492614e-01,
          1.67009220e-01, 1.95800155e-01, 1.11371033e-01, 5.52151799e-02,
          1.44598454e-01, 1.65998578e-01, 2.19999954e-01, 2.09252968e-01,
          2.62425542e-01, 1.80998638e-01, 2.50414521e-01, 2.21156076e-01,
          1.19576022e-01, 1.48322940e-01, 5.28463200e-02, 2.62425542e-01,
          1.96450591e-01, 1.73038766e-01, 9.72112492e-02, 1.27884656e-01,
          7.86248893e-02, 5.08511029e-02, 1.00887865e-01, 5.27833663e-02,
          1.30809486e-01, 1.15744472e-01, 1.69292390e-01, 1.44811705e-01,
          2.15553328e-01, 1.36841521e-01, 8.10136423e-02, 1.23068362e-01,
          5.29160574e-02, 2.62425542e-01, 2.04611957e-01, 2.39165097e-01,
          1.34152591e-01, 2.50285566e-01, 3.19250077e-01, 1.56900510e-01,
          3.19250077e-01, 4.06662524e-02, 2.75137305e-01, 2.72321224e-01,
          1.12772815e-01, 3.60930115e-02, 4.85754870e-02, 9.99032781e-02,
          5.31355254e-02, 2.16980785e-01, 3.23294885e-02, 8.96023065e-02,
          6.98061213e-02, 3.73334251e-02, 1.76434636e-01, 3.19250077e-01,
          3.19250077e-01, 1.43085167e-01, 1.95845902e-01, 5.32694869e-02,
          1.99462786e-01, 1.44628897e-01, 1.78858116e-01, 4.35738117e-02,
          7.37350285e-02, 1.41680405e-01, 5.82659468e-02, 1.37751266e-01,
          3.43060754e-02, 4.89756726e-02, 3.46862376e-02, 2.65545938e-02,
          2.20446900e-01, 1.56858310e-01, 1.81205809e-01, 1.71085879e-01,
          2.75971770e-01, 5.33281527e-02, 7.15888143e-02, 7.76235983e-02,
          1.88167453e-01, 2.34461099e-01, 2.17945322e-01, 1.88063785e-01,
          8.95819142e-02, 2.09850684e-01, 9.36783478e-02, 1.01776011e-01,
          1.37431592e-01, 1.68922052e-01, 1.45653054e-01, 2.12578803e-01,
          1.14681698e-01, 1.58724770e-01, 2.73396820e-01, 7.63497725e-02,
          1.11848652e-01, 1.43270716e-01, 1.45129710e-01, 1.38041943e-01,
          1.74767807e-01, 1.35028139e-01, 9.07208472e-02, 3.06246728e-01,
          7.14333951e-02, 1.05076693e-01, 1.68108076e-01, 1.45880178e-01,
          1.36966586e-01, 1.60542846e-01, 1.28378600e-01, 6.71660453e-02,
          1.74999729e-01, 7.82109722e-02, 9.56944823e-02, 1.24074101e-01,
          1.49906933e-01, 1.95434839e-01, 2.31173798e-01, 1.88587978e-01,
          1.77250236e-01, 2.63500065e-01, 8.05089176e-02, 1.23227686e-01,
          1.99075252e-01, 2.74540126e-01, 1.39287427e-01, 2.00787425e-01,
          1.26115501e-01, 1.12792723e-01, 2.50742555e-01, 5.54422140e-02,
          7.15660304e-02, 9.98454243e-02, 1.32642120e-01, 1.67591110e-01,
          2.38421604e-01, 1.21357769e-01, 1.57306030e-01, 2.29392394e-01,
          1.60417750e-01, 1.78050414e-01, 1.96898535e-01, 1.34350732e-01,
          1.01808272e-01, 1.45340890e-01, 8.88189226e-02, 9.71152857e-02,
          1.47381485e-01, 1.01112120e-01, 1.28137946e-01, 1.74097523e-01,
          1.72058046e-01, 2.75207311e-01, 3.23447943e-01, 1.64898485e-01,
          7.52511770e-02, 1.51607513e-01, 1.41908988e-01, 3.30915868e-01,
          3.01689357e-01, 4.48900789e-01, 8.30619410e-02, 1.22616827e-01,
          8.34542438e-02, 7.98064321e-02, 1.24242507e-01, 1.15598463e-01,
          7.43854418e-02, 1.01748757e-01, 5.62733822e-02, 1.03899673e-01,
          1.03949614e-01, 1.28816873e-01, 6.98359311e-02, 1.66681588e-01,
          9.04083699e-02, 7.83371031e-02, 6.84244037e-02, 7.95904174e-02,
          3.11739534e-01, 3.97197753e-01, 3.02159488e-01, 1.15321204e-01,
          1.33378297e-01, 8.69393796e-02, 2.09714681e-01, 1.48646131e-01,
          3.11388820e-01, 1.18923202e-01, 1.04028657e-01, 1.69413805e-01,
          7.64518008e-02, 1.79155648e-01, 3.75683419e-02, 1.11344904e-01,
          1.18994154e-01, 1.13299124e-01, 1.32894114e-01, 8.46622363e-02,
          1.78936869e-01, 1.70637384e-01, 1.55702382e-01, 7.50840008e-02,
          8.34675059e-02, 4.21016477e-02, 9.38950703e-02, 1.14536658e-01,
          7.17069656e-02, 2.32777789e-01, 1.92419365e-01, 1.96835607e-01,
          4.80951741e-02, 7.14370534e-02, 6.85252100e-02, 1.41197219e-01 ]
      - [ 1.86956093e-01, 1.20743454e-01, 1.28055796e-01, 9.09241289e-02,
          2.37288579e-01, 7.99760073e-02, 1.41298398e-01, 9.59708169e-02,
          1.60946861e-01, 1.49607822e-01, 1.30587548e-01, 1.58854008e-01,
          7.64307380e-02, 2.11952955e-01, 1.44158900e-01, 1.87566087e-01,
          2.19111055e-01, 1.83130756e-01, 2.26492360e-01, 2.04149351e-01,
          1.84399292e-01, 1.45716473e-01, 2.46114895e-01, 7.84563869e-02,
          1.29667267e-01, 5.33480719e-02, 1.61781922e-01, 1.60180777e-01,
          2.02468246e-01, 1.79076150e-01, 8.26962367e-02, 2.67363816e-01,
          1.40002370e-01, 2.02561051e-01, 1.42457753e-01, 1.63930714e-01,
          8.83660987e-02, 1.29404083e-01, 2.11855322e-01, 1.06969729e-01,
          1.71588793e-01, 6.73085377e-02, 1.78589627e-01, 1.86887771e-01,
          9.89916995e-02, 9.83615369e-02, 1.11947633e-01, 1.83519974e-01,
          1.36842728e-01, 2.47166589e-01, 2.92268414e-02, 1.44377783e-01,
          9.23478082e-02, 9.13573354e-02, 1.05482899e-01, 1.29105344e-01,
          2.18345657e-01, 8.39570537e-02, 2.55055904e-01, 9.85782444e-02,
          1.91644967e-01, 1.22051999e-01, 1.15607873e-01, 1.94407016e-01,
          9.61791798e-02, 2.40671039e-01, 1.35886416e-01, 3.99676442e-01,
          6.38862029e-02, 1.96514770e-01, 1.03490405e-01, 2.55956590e-01,
          4.08590585e-02, 2.47887261e-02, 4.36377078e-02, 3.69171090e-02,
          8.53191987e-02, 5.45413792e-02, 8.23353678e-02, 4.64591868e-02,
          6.02509230e-02, 7.82449022e-02, 6.61872923e-02, 6.57975823e-02,
          4.17579114e-02, 6.95557445e-02, 6.94814026e-02, 1.00156642e-01,
          8.74354541e-02, 1.03831835e-01, 9.38149616e-02, 8.72487724e-02,
          1.24220811e-01, 4.31239754e-02, 1.54399335e-01, 2.76545417e-02,
          9.29043666e-02, 4.79667932e-02, 1.03224255e-01, 4.04380649e-01,
          5.53188860e-01, 4.72514361e-01, 2.70182062e-02, 1.45786762e-01,
          5.77363111e-02, 1.89449593e-01, 1.39426932e-01, 2.40933180e-01,
          5.54495677e-02, 3.79184037e-02, 3.97946909e-02, 2.34207232e-02,
          3.67303342e-02, 1.37009099e-02, 3.78391817e-02, 3.45129892e-02,
          6.02392107e-02, 6.96825609e-02, 1.27187027e-02, 1.67650972e-02,
          2.14494690e-02, 5.10703288e-02, 1.83486994e-02, 3.18510756e-02,
          3.24492455e-02, 7.35606998e-02, 4.05503213e-01, 3.72761458e-01,
          2.52717406e-01, 1.10264188e-02, 5.44037856e-02, 7.21583962e-02,
          2.12429062e-01, 1.71126321e-01, 4.25781012e-01, 2.00354785e-01,
          8.53430107e-02, 6.39476776e-02, 3.17679420e-02, 6.90007880e-02,
          9.50601771e-02, 2.99470931e-01, 2.34035522e-01, 3.50879699e-01,
          5.58447242e-02, 4.49571535e-02, 2.00139266e-02, 1.39133465e-02,
          6.73830360e-02, 7.16797560e-02, 1.14545859e-01, 9.56492573e-02,
          8.03745985e-02, 2.11418644e-02, 1.98085029e-02, 1.70485787e-02,
          1.42663904e-02, 3.35291177e-02, 3.62412371e-02, 5.59867136e-02,
          3.02048475e-02, 2.36486886e-02, 8.09915066e-02, 7.54208267e-02,
          1.19024441e-02, 2.23493464e-02, 1.57080442e-01, 3.72959524e-01,
          4.39918488e-01, 4.39918488e-01, 1.14015229e-01, 8.95019099e-02,
          8.53316709e-02, 3.06906588e-02, 3.21844220e-02, 3.60683538e-02,
          1.77003816e-01, 4.39918488e-01, 3.47712457e-01, 4.51090038e-02,
          1.99098811e-02, 1.53873563e-02, 2.28894949e-02, 9.77698714e-03,
          3.39354500e-02, 1.94063969e-02, 2.86151636e-02, 1.18333222e-02,
          1.92897543e-02, 1.00442506e-01, 2.99114920e-02, 3.29276696e-02,
          1.35467090e-02, 1.61721021e-01, 9.68106836e-02, 1.59185693e-01,
          1.07566461e-01, 1.43904984e-01, 2.02687159e-01, 2.25711718e-01,
          1.09005749e-01, 2.48779412e-02, 4.61702235e-02, 3.31733488e-02,
          8.29869956e-02, 6.56308159e-02, 6.33320510e-02, 3.64973634e-01,
          3.64973634e-01, 2.88257390e-01, 6.36729822e-02, 2.57264853e-01,
          2.63288051e-01, 3.64973634e-01, 2.85555452e-01, 2.45086312e-01,
          3.74549180e-02, 2.96548866e-02, 8.49027932e-02, 2.44516134e-02,
          5.68502806e-02, 3.58832739e-02, 1.06142282e-01, 7.69975111e-02,
          6.83677644e-02, 8.27712566e-02, 2.71144509e-01, 3.07772279e-01,
          6.87154830e-02, 2.88439617e-02, 2.36698668e-02, 6.75816610e-02,
          4.30698320e-02, 5.44851646e-02, 1.30812362e-01, 2.57868588e-01,
          2.45184213e-01, 1.24981649e-01, 1.03715725e-01, 1.74887970e-01,
          3.07772279e-01, 1.85088918e-01, 1.50421396e-01, 1.08769581e-01,
          3.07772279e-01, 3.07772279e-01, 3.07772279e-01, 1.46917745e-01,
          1.40530154e-01, 2.38602355e-01, 1.03976317e-01, 1.11694552e-01,
          1.67751044e-01, 2.81674325e-01, 2.81674325e-01, 3.88033129e-02,
          1.78590585e-02, 6.81505054e-02, 1.82425588e-01, 8.90661329e-02,
          1.64740071e-01, 7.52304420e-02, 5.05375378e-02, 4.79757749e-02,
          3.29363197e-02, 5.93284406e-02, 1.42886639e-01, 2.81674325e-01,
          1.85009435e-01, 1.28649935e-01, 1.11737952e-01, 2.81674325e-01,
          2.81674325e-01, 2.46185854e-01, 1.07838489e-01, 1.10918261e-01,
          1.81348100e-01, 8.62038732e-02, 8.80877525e-02, 8.39244127e-02,
          1.37595534e-01, 1.26707256e-01, 1.79761216e-01, 1.43224835e-01,
          2.30221584e-01, 2.81674325e-01, 1.84069008e-01, 7.08685145e-02,
          2.82610059e-02, 1.44764083e-02, 1.32713364e-02, 2.11951509e-02,
          3.65308523e-02, 1.68909431e-01, 3.03899139e-01, 2.76616544e-01,
          2.31882147e-02, 1.60658374e-01, 1.14194803e-01, 1.20118976e-01,
          8.25827643e-02, 1.61423963e-02, 1.81862548e-01, 3.03899139e-01,
          3.03899139e-01, 6.53441697e-02, 3.86052690e-02, 5.57143725e-02,
          2.16517925e-01, 1.15529798e-01, 4.13769633e-02, 1.10498533e-01,
          1.82689413e-01, 8.45801979e-02, 2.61154287e-02, 1.84607953e-01,
          1.59197047e-01, 3.03899139e-01, 3.03899139e-01, 4.20468710e-02,
          2.08119214e-01, 2.48307452e-01, 1.85337871e-01, 9.20090005e-02,
          2.68997610e-01, 2.78477103e-01, 1.90723479e-01, 6.60089925e-02,
          1.69648323e-02, 3.52162234e-02, 6.72772303e-02, 8.63494873e-02,
          5.80559224e-02, 2.78477103e-01, 2.78477103e-01, 2.78477103e-01,
          1.29460663e-01, 8.17418098e-02, 3.58995050e-02, 1.01056054e-01,
          7.06236139e-02, 6.03989623e-02, 2.51519978e-01, 2.28605032e-01,
          2.78477103e-01, 1.61202505e-01, 3.85012031e-02, 5.35410084e-02,
          4.95131761e-02, 7.29817301e-02, 7.08797276e-02, 2.75547445e-01,
          2.78477103e-01, 2.78477103e-01, 1.38947040e-01, 1.32668152e-01,
          3.91766988e-03, 2.74426788e-02, 4.38409783e-02, 8.14568400e-02,
          2.06458047e-01, 2.62389690e-01, 2.62389690e-01, 1.85723484e-01,
          8.64953473e-02, 1.03326894e-01, 2.12131053e-01, 1.00687802e-01,
          7.87923560e-02, 1.94787994e-01, 2.12052464e-01, 2.62389690e-01,
          2.62389690e-01, 1.52926430e-01, 1.64225727e-01, 2.62389690e-01,
          1.79099515e-01, 1.10130511e-01, 1.61944285e-01, 2.62389690e-01,
          2.62389690e-01, 1.17660865e-01, 8.03459510e-02, 1.24233989e-02,
          4.93469387e-02, 5.44930361e-02, 4.88601290e-02, 1.53189033e-01,
          1.35699958e-01, 1.11165553e-01, 4.56592888e-02, 3.95775326e-02,
          5.34873530e-02, 1.54451892e-01, 1.77944601e-01, 1.02977470e-01,
          2.78398722e-01, 2.74686009e-01, 2.18224138e-01, 2.26143032e-01,
          1.76204577e-01, 1.41255289e-01, 1.80984989e-01, 1.69399589e-01,
          1.61086097e-01, 1.76462606e-01, 2.81377047e-01, 1.86656579e-01,
          1.47693768e-01, 1.84033617e-01, 1.32132173e-01, 3.70887183e-02,
          6.31666407e-02, 1.03873454e-01, 2.81377047e-01, 2.01409742e-01,
          8.21992084e-02, 2.63620503e-02, 6.36779368e-02, 7.25690275e-02,
          1.33486167e-01, 1.92287013e-01, 2.13975608e-01, 2.08966151e-01,
          2.21025735e-01, 1.17265068e-01, 1.89256612e-02, 1.19076572e-01,
          7.38507137e-02, 1.73628684e-02, 2.79453993e-02, 9.04601365e-02,
          1.28598288e-01, 1.78895071e-01, 4.00881827e-01, 3.00837636e-01,
          1.71753585e-01, 6.25811219e-02, 6.70412108e-02, 2.41771545e-02,
          4.94298637e-02, 1.52401790e-01, 2.11378425e-01, 4.00881827e-01,
          4.00881827e-01, 1.16443612e-01, 9.66457576e-02, 5.58147952e-02,
          2.40220167e-02, 7.61072412e-02, 1.43943682e-01, 7.93921649e-02,
          1.98094934e-01, 1.14392616e-01, 1.47553071e-01, 3.18262912e-02,
          7.43572488e-02, 3.45918462e-02, 5.59072234e-02, 1.14370778e-01,
          6.62391335e-02, 2.61087239e-01, 1.32106021e-01, 1.15888134e-01,
          2.39498317e-02, 3.97148840e-02, 1.91820674e-02, 5.08038886e-02,
          2.09580854e-01, 1.63864344e-01, 4.62616354e-01, 3.93022269e-01,
          1.36463553e-01, 7.85939619e-02, 6.03592210e-02, 6.22108094e-02,
          1.21257119e-01, 3.41344744e-01, 2.69355029e-01, 3.19226861e-01,
          1.09785162e-01, 2.41794720e-01, 2.90200245e-02, 6.42189384e-02,
          1.12834759e-01, 2.28573471e-01, 4.58789021e-02, 2.95772217e-02,
          1.23351775e-01, 6.13258295e-02, 1.30670279e-01, 1.84975918e-02,
          3.28997634e-02, 3.34479772e-02, 5.48072159e-02, 6.41348585e-02,
          6.06305487e-02, 4.90601324e-02, 2.45220326e-02, 8.97313431e-02,
          3.01100761e-02, 7.36626610e-02, 6.99303150e-02, 5.49673811e-02,
          3.22710752e-01, 4.21301812e-01, 4.06195313e-01, 1.06785603e-01,
          1.96261019e-01, 2.64128409e-02, 7.17488453e-02, 1.29356414e-01,
          2.17707887e-01, 2.18478099e-01, 1.57651812e-01, 1.00232258e-01,
          5.49230985e-02, 1.30731955e-01, 6.90958574e-02, 1.77283973e-01,
          2.62008637e-01, 2.39480883e-01, 8.80680308e-02, 8.13936964e-02,
          7.63655081e-02, 5.25965840e-02, 8.74498188e-02, 4.24637683e-02,
          8.29723254e-02, 8.84625018e-02, 7.54597634e-02, 6.83125108e-02,
          9.68880355e-02, 6.24927394e-02, 4.52050529e-02, 1.72831714e-01,
          9.18498039e-02, 1.27406687e-01, 1.54763132e-01, 1.09621599e-01,
          4.47838336e-01, 1.37851819e-01, 1.03805773e-01, 6.08939454e-02,
          1.75564498e-01, 1.21432185e-01, 1.64899603e-01, 2.57988006e-01,
          3.29474509e-01, 3.10762227e-01, 1.73113585e-01, 1.70562327e-01,
          6.69751391e-02, 1.55341044e-01, 1.00000769e-01, 1.06598474e-01,
          9.50408801e-02, 1.58586800e-01, 9.32919681e-02, 1.35858506e-01,
          8.93154591e-02, 6.08527251e-02, 2.25200236e-01, 1.22754782e-01,
          1.32166967e-01, 1.51355252e-01, 1.47335559e-01, 1.08266152e-01,
          7.55294338e-02, 1.23073123e-01, 5.59067801e-02, 1.59116864e-01,
          6.65083826e-02, 1.45627871e-01, 7.22688809e-02, 1.16258420e-01 ]
      - [ 9.45259631e-02, 7.81884715e-02, 1.04828097e-01, 5.36096655e-02,
          1.57809600e-01, 2.75041256e-02, 9.61349383e-02, 7.38718808e-02,
          8.99230167e-02, 8.87106359e-02, 1.47169501e-01, 1.49339557e-01,
          7.72136301e-02, 2.08489507e-01, 2.16999892e-02, 5.52626662e-02,
          8.27180073e-02, 7.74707049e-02, 2.78904766e-01, 1.08811378e-01,
          1.27323866e-01, 9.79226828e-02, 3.95185649e-01, 8.23423490e-02,
          2.31085077e-01, 1.85793564e-01, 3.14436376e-01, 2.35562608e-01,
          1.19645901e-01, 1.49630114e-01, 3.28075141e-02, 2.78693497e-01,
          7.14174211e-02, 2.00671926e-01, 2.05388352e-01, 2.72148371e-01,
          1.45994470e-01, 1.87276244e-01, 1.93640605e-01, 1.48899764e-01,
          2.90695131e-01, 3.62332240e-02, 6.83735907e-02, 8.83421749e-02,
          1.39827415e-01, 1.70080245e-01, 1.53513491e-01, 1.61013976e-01,
          1.82468876e-01, 2.34873399e-01, 8.98511782e-02, 1.31722361e-01,
          7.26895705e-02, 1.99647740e-01, 1.84248820e-01, 1.19625814e-01,
          1.12802759e-01, 5.42836599e-02, 2.96966344e-01, 5.45277074e-02,
          1.44026592e-01, 2.08334669e-01, 1.88040093e-01, 1.59369633e-01,
          9.34158489e-02, 1.32460758e-01, 1.23938426e-01, 3.29581201e-01,
          9.21794772e-02, 1.73319221e-01, 1.38077140e-01, 1.77045420e-01,
          1.31401151e-01, 1.00421377e-01, 1.15981013e-01, 9.42354351e-02,
          1.74712166e-01, 8.82230252e-02, 1.49841398e-01, 5.64938858e-02,
          1.47426605e-01, 1.38846219e-01, 9.28161144e-02, 1.10345013e-01,
          2.08696127e-02, 2.53704607e-01, 1.38915002e-01, 1.97666317e-01,
          8.79707932e-02, 1.44008949e-01, 1.86061412e-01, 6.78675771e-02,
          1.11162476e-01, 7.80377537e-02, 2.93103784e-01, 1.25032693e-01,
          1.62150651e-01, 8.87364000e-02, 2.13537723e-01, 2.80318052e-01,
          1.63566440e-01, 1.04298554e-01, 4.56385016e-02, 2.66204268e-01,
          1.75402999e-01, 2.94438154e-01, 1.92050457e-01, 2.83588260e-01,
          1.19323008e-01, 5.54786846e-02, 5.68815172e-02, 1.24918353e-02,
          1.85699388e-01, 1.10643581e-01, 1.14683218e-01, 8.04801509e-02,
          1.25968263e-01, 1.65486619e-01, 9.08372328e-02, 5.54649755e-02,
          1.59284053e-03, 1.66921780e-01, 3.76559012e-02, 1.16989262e-01,
          2.15640843e-01, 2.20643610e-01, 2.42879555e-01, 2.83164114e-01,
          1.32491156e-01, 3.73627059e-02, 1.71394244e-01, 9.28877369e-02,
          1.78343818e-01, 1.21919423e-01, 2.89066941e-01, 2.43211731e-01,
          2.26271316e-01, 1.01920433e-01, 5.78440353e-03, 1.91652030e-01,
          5.47516532e-02, 2.53029138e-01, 1.95973754e-01, 3.50803137e-01,
          6.67649060e-02, 1.52845979e-02, 1.53901475e-02, 2.64690276e-02,
          1.45559594e-01, 1.00419223e-01, 2.34310925e-01, 2.18257606e-01,
          1.04807101e-01, 5.53631261e-02, 1.96938533e-02, 2.89212316e-02,
          1.13308160e-02, 6.74282089e-02, 1.05389044e-01, 2.37421587e-01,
          2.10038140e-01, 8.85977969e-02, 2.12829988e-02, 4.66519073e-02,
          1.29434884e-01, 4.05767225e-02, 1.18672267e-01, 1.16741806e-01,
          3.26245785e-01, 2.87393093e-01, 6.93473145e-02, 6.72246814e-02,
          1.21235818e-01, 2.92682618e-01, 8.17943737e-02, 1.17701113e-01,
          1.74105704e-01, 3.50476205e-01, 3.50476205e-01, 2.71448702e-01,
          3.68672013e-02, 1.74392406e-02, 2.94990484e-02, 1.26005039e-02,
          5.58786467e-02, 3.26071121e-02, 7.72488490e-02, 4.80893776e-02,
          5.89714609e-02, 3.85386162e-02, 1.34346532e-02, 2.13105958e-02,
          9.83195752e-03, 8.42057690e-02, 5.45994528e-02, 1.62469774e-01,
          1.02905102e-01, 1.03040799e-01, 2.00900674e-01, 6.65435791e-02,
          1.23788089e-01, 4.53852266e-02, 8.80614668e-02, 9.85952094e-02,
          2.69775182e-01, 2.98551351e-01, 3.77870262e-01, 3.09557647e-01,
          1.01713553e-01, 1.03648171e-01, 6.64100423e-02, 1.45668551e-01,
          1.24329202e-01, 3.77870262e-01, 3.09340984e-01, 3.69962692e-01,
          2.95964219e-02, 8.11970513e-03, 1.48371346e-02, 4.88607073e-03,
          4.35999073e-02, 3.31529528e-02, 9.12382528e-02, 6.05725460e-02,
          5.57539873e-02, 6.56823292e-02, 1.26572445e-01, 2.07182691e-01,
          8.28892514e-02, 6.82103261e-02, 1.85232200e-02, 3.92705090e-02,
          2.99574994e-02, 4.51535024e-02, 1.84486091e-01, 1.05837680e-01,
          1.35047376e-01, 4.30810675e-02, 6.42339662e-02, 8.64643529e-02,
          3.87217015e-01, 2.47389689e-01, 1.59446895e-01, 2.29365379e-01,
          3.15131068e-01, 3.87217015e-01, 3.87217015e-01, 2.13110968e-01,
          1.25799224e-01, 1.32118672e-01, 1.95089966e-01, 1.23278774e-01,
          8.29817429e-02, 1.99848384e-01, 2.32890934e-01, 8.96275118e-02,
          5.01054116e-02, 4.03406359e-02, 5.00367917e-02, 3.34488861e-02,
          7.01920986e-02, 6.34402335e-02, 1.01792336e-01, 8.67125615e-02,
          3.99505757e-02, 4.40653339e-02, 9.46144611e-02, 1.23216756e-01,
          9.05980915e-02, 1.03551537e-01, 1.77144095e-01, 3.25686187e-01,
          3.25686187e-01, 3.25686187e-01, 2.09655181e-01, 1.70485809e-01,
          5.96589185e-02, 1.16095982e-01, 9.35080945e-02, 8.66185576e-02,
          1.64340064e-01, 2.33182922e-01, 1.79133564e-01, 1.91461071e-01,
          3.05706948e-01, 2.42952257e-01, 1.83496341e-01, 1.19468234e-01,
          1.05271041e-02, 2.01455534e-01, 3.67042065e-01, 7.23121241e-02,
          5.44640534e-02, 1.87336709e-02, 6.65941685e-02, 5.46468161e-02,
          2.39491165e-02, 7.49420896e-02, 3.04912746e-01, 3.67042065e-01,
          1.07569508e-01, 6.92756698e-02, 5.66662699e-02, 1.73311502e-01,
          1.71702802e-01, 1.52089000e-01, 7.94150904e-02, 2.96855062e-01,
          3.67042065e-01, 1.06663644e-01, 9.62879211e-02, 3.60107161e-02,
          1.79553609e-02, 1.55879036e-02, 4.11322415e-02, 5.02141044e-02,
          2.55928844e-01, 3.67042065e-01, 8.58153105e-02, 2.90306900e-02,
          2.68655904e-02, 4.46344614e-02, 3.07785887e-02, 2.96054855e-02,
          2.30663702e-01, 1.13614231e-01, 2.10389763e-01, 5.51540777e-02,
          5.32881841e-02, 5.23432456e-02, 1.39924839e-01, 1.62193894e-01,
          2.81786442e-01, 3.02314132e-01, 2.13758796e-01, 3.23413789e-01,
          1.33704379e-01, 1.10060655e-01, 4.75564897e-02, 2.47194141e-01,
          1.17602117e-01, 2.58599073e-01, 1.15645625e-01, 8.78854617e-02,
          2.02410549e-01, 6.64097816e-02, 7.72732422e-02, 1.05017414e-02,
          3.92456800e-02, 2.48155147e-02, 7.61428699e-02, 1.67977914e-01,
          2.52685815e-01, 3.23413789e-01, 1.58869252e-01, 1.42008334e-01,
          1.34326294e-02, 2.84999683e-02, 2.02581063e-02, 1.12919368e-01,
          1.79281473e-01, 1.79782987e-01, 3.05811018e-01, 8.38276222e-02,
          6.51783049e-02, 5.59256375e-02, 2.13679537e-01, 1.35509342e-01,
          1.03605129e-01, 2.00384408e-01, 1.97372660e-01, 3.05811018e-01,
          2.14814082e-01, 1.67085007e-01, 2.35847205e-01, 2.25099474e-01,
          2.90669501e-01, 1.31323397e-01, 7.47961029e-02, 1.41337320e-01,
          3.02746981e-01, 7.34204426e-02, 7.85601810e-02, 2.37196069e-02,
          2.66465377e-02, 2.67785266e-02, 4.97212894e-02, 8.57279599e-02,
          5.96519299e-02, 5.08385822e-02, 2.36894079e-02, 1.09254695e-01,
          1.69169068e-01, 2.11257473e-01, 2.30799481e-01, 9.65581834e-02,
          1.64139479e-01, 2.05452755e-01, 2.99116343e-01, 2.41510794e-01,
          2.12313116e-01, 2.26952434e-01, 1.44994780e-01, 1.75871387e-01,
          1.43307388e-01, 8.39109123e-02, 1.77202329e-01, 2.99116343e-01,
          1.53813124e-01, 1.89923450e-01, 1.89073205e-01, 1.28152028e-01,
          7.26008415e-02, 1.07800521e-01, 1.15967825e-01, 8.74806792e-02,
          1.37569636e-01, 4.48160246e-02, 8.82926732e-02, 1.56028524e-01,
          2.06128195e-01, 1.89878881e-01, 1.79658636e-01, 8.95637199e-02,
          1.80970773e-01, 2.99116343e-01, 7.08137155e-02, 6.71012178e-02,
          6.10224530e-02, 5.83817996e-02, 5.11652753e-02, 1.40620098e-01,
          2.95899779e-01, 3.16039681e-01, 5.56864440e-01, 1.22462966e-01,
          2.31107667e-01, 9.52916816e-02, 7.76609480e-02, 5.66875413e-02,
          1.43696234e-01, 1.22031406e-01, 1.95269749e-01, 4.26357090e-01,
          8.45490098e-02, 8.78563821e-02, 5.88812493e-02, 9.58584920e-02,
          1.02719694e-01, 7.82733560e-02, 1.03350990e-01, 7.19687790e-02,
          6.05277084e-02, 1.84649732e-02, 1.07296348e-01, 3.85903567e-02,
          6.71219602e-02, 4.75461259e-02, 7.95286223e-02, 9.70715359e-02,
          7.88038298e-02, 7.61049464e-02, 4.36668769e-02, 1.24361880e-01,
          3.16718780e-02, 6.39919862e-02, 1.10670634e-01, 9.17419344e-02,
          1.54638007e-01, 1.06868386e-01, 2.04769343e-01, 1.02488592e-01,
          1.79142043e-01, 2.79932488e-02, 1.04627885e-01, 9.34567079e-02,
          1.02793723e-01, 3.16083848e-01, 2.76359916e-01, 5.61610639e-01,
          1.86516240e-01, 2.68413454e-01, 4.68920618e-02, 1.31565168e-01,
          8.03869441e-02, 2.06186742e-01, 8.60770047e-02, 6.56727552e-02,
          6.42234758e-02, 2.43874565e-02, 1.02481104e-01, 3.40705961e-02,
          9.88522694e-02, 1.66765422e-01, 9.38818827e-02, 1.34334683e-01,
          8.60926360e-02, 8.12698901e-02, 8.39360058e-03, 1.11154564e-01,
          5.00175431e-02, 1.24613419e-01, 1.37414634e-01, 1.40641242e-01,
          1.70835406e-01, 1.56329721e-01, 2.94890523e-01, 8.01412165e-02,
          2.58127213e-01, 6.23967461e-02, 1.20395720e-01, 9.89853889e-02,
          1.63040608e-01, 1.85113028e-01, 1.02260932e-01, 5.81193194e-02,
          5.73276402e-03, 3.08499277e-01, 2.15633765e-01, 2.86131412e-01,
          2.92707741e-01, 2.12093100e-01, 1.25899807e-01, 5.96176945e-02,
          6.97539002e-02, 2.40543876e-02, 2.33880982e-01, 3.96628752e-02,
          1.36098936e-01, 1.10727057e-01, 1.58001617e-01, 1.29814371e-01,
          9.99860540e-02, 9.27220210e-02, 5.76873273e-02, 2.78360993e-01,
          5.17394841e-02, 1.44967481e-01, 1.44035354e-01, 1.55525386e-01,
          2.32081488e-01, 1.16571359e-01, 1.56570777e-01, 6.29256293e-02,
          1.45433605e-01, 1.93537444e-01, 2.52620995e-01, 2.80489475e-01,
          3.45544279e-01, 1.88408792e-01, 2.26345435e-01, 3.65599036e-01,
          8.87439474e-02, 9.25134048e-02, 1.18650250e-01, 1.32054940e-01,
          1.85652405e-01, 3.33376318e-01, 9.57980826e-02, 1.02149501e-01,
          7.49496967e-02, 3.66233289e-02, 1.53464064e-01, 5.07784523e-02,
          6.62676394e-02, 9.11245495e-02, 9.89174843e-02, 1.06593125e-01,
          8.58612508e-02, 7.78627694e-02, 3.50567065e-02, 1.37452051e-01,
          6.53099641e-02, 1.21458650e-01, 1.03134245e-01, 1.17212832e-01 ]
      - [ 3.25942263e-02, 9.62754991e-03, 1.71537679e-02, 5.58578596e-03,
          4.18029055e-02, 1.71996988e-02, 3.64129730e-02, 2.50605196e-02,
          3.69764939e-02, 5.76648377e-02, 1.53952949e-02, 2.20026188e-02,
          7.92550109e-03, 6.14228100e-02, 1.87856331e-02, 2.22714916e-02,
          1.72630921e-02, 5.98208234e-02, 2.83065975e-01, 2.36167714e-01,
          3.38431120e-01, 1.52180701e-01, 1.66883841e-01, 5.03847152e-02,
          4.24403772e-02, 4.46507484e-02, 2.27110729e-01, 3.84875983e-01,
          1.79399133e-01, 3.07492197e-01, 9.03290287e-02, 1.50325835e-01,
          1.80234209e-01, 3.09070766e-01, 1.88633367e-01, 3.84875983e-01,
          8.09618086e-02, 2.24716421e-02, 2.54782941e-02, 5.48032811e-03,
          7.89196193e-02, 2.87153218e-02, 3.93981636e-02, 3.10595594e-02,
          8.44227672e-02, 6.87711686e-02, 1.22918729e-02, 2.85146348e-02,
          1.06861889e-02, 1.26408651e-01, 2.41355281e-02, 2.97092013e-02,
          2.60323659e-02, 7.95296356e-02, 3.26128870e-01, 5.61166890e-02,
          7.80104473e-02, 2.09074635e-02, 2.65001416e-01, 2.61050045e-01,
          5.06685853e-01, 3.59992266e-01, 4.73187983e-01, 8.21855739e-02,
          4.67234701e-02, 4.86804098e-02, 2.02990994e-02, 1.86130166e-01,
          5.68810180e-02, 8.32553059e-02, 7.47877955e-02, 1.16139621e-01,
          1.17469512e-01, 7.95272291e-02, 7.60434642e-02, 4.21792679e-02,
          3.61258715e-01, 7.46330693e-02, 6.99165836e-02, 1.06362060e-01,
          1.42263278e-01, 1.05316132e-01, 1.03259794e-01, 1.55478522e-01,
          8.47383440e-02, 3.93586695e-01, 6.99314326e-02, 1.09978214e-01,
          1.53390482e-01, 1.15874730e-01, 2.02323407e-01, 1.34265944e-01,
          1.42733186e-01, 8.35442692e-02, 2.97048271e-01, 1.15688287e-01,
          1.26711756e-01, 1.18667327e-01, 2.20278904e-01, 2.06030965e-01,
          1.08580425e-01, 1.19696647e-01, 1.21400125e-01, 3.11519414e-01,
          1.13408566e-01, 1.33717746e-01, 8.62981230e-02, 2.07070857e-01,
          1.36289448e-01, 6.09529242e-02, 1.75111309e-01, 4.23558839e-02,
          3.34196597e-01, 7.01161101e-02, 9.48982760e-02, 5.46157584e-02,
          1.38925999e-01, 2.32690588e-01, 6.76789433e-02, 2.08506778e-01,
          2.17536818e-02, 2.96750844e-01, 7.21289515e-02, 7.47652054e-02,
          3.93807366e-02, 2.36276999e-01, 1.72949523e-01, 6.19918145e-02,
          9.91405100e-02, 3.93834449e-02, 3.02210748e-01, 2.77194474e-02,
          5.11434078e-02, 6.74395636e-02, 1.76070929e-01, 3.04374814e-01,
          7.48228878e-02, 1.02967188e-01, 6.95387367e-03, 3.49499702e-01,
          7.81974494e-02, 7.38665760e-02, 1.04549803e-01, 3.14807028e-01,
          9.41130221e-02, 1.06721953e-01, 2.05234647e-01, 2.01189071e-01,
          1.41823038e-01, 6.28139973e-02, 5.04042916e-02, 3.23898867e-02,
          6.51944131e-02, 1.78906485e-01, 1.30284324e-01, 2.90854782e-01,
          1.49583831e-01, 1.34045839e-01, 1.03512652e-01, 2.19881952e-01,
          1.04767963e-01, 1.91898853e-01, 7.85571560e-02, 9.98649821e-02,
          1.28823578e-01, 1.85682654e-01, 1.54437602e-01, 1.48271486e-01,
          2.65605122e-01, 1.08737789e-01, 6.35690168e-02, 1.37802750e-01,
          2.90854782e-01, 2.90854782e-01, 1.96537152e-01, 1.37916893e-01,
          1.16985403e-01, 2.90854782e-01, 1.35013923e-01, 1.40560508e-01,
          8.72576535e-02, 5.11073135e-02, 1.16994523e-01, 4.55346033e-02,
          1.20385773e-01, 1.28195420e-01, 2.22701833e-01, 1.22738615e-01,
          1.39617100e-01, 9.48821083e-02, 4.00070585e-02, 2.04404481e-02,
          1.47883119e-02, 5.11292741e-02, 5.40062636e-02, 5.94375767e-02,
          6.72844201e-02, 9.17670503e-02, 1.43518388e-01, 2.66667873e-01,
          2.76327997e-01, 1.18864566e-01, 1.22259431e-01, 1.95167005e-01,
          2.76327997e-01, 2.41318122e-01, 1.78435773e-01, 2.76327997e-01,
          2.05087081e-01, 1.67230114e-01, 7.81212822e-02, 7.55056068e-02,
          1.89158052e-01, 2.73080200e-01, 2.76327997e-01, 2.76327997e-01,
          1.72746778e-01, 7.48422146e-02, 2.70268340e-02, 2.14177892e-02,
          3.41678187e-02, 2.92426907e-02, 3.31940874e-02, 3.71854901e-02,
          1.36244684e-01, 7.95896873e-02, 3.58530469e-02, 1.76556520e-02,
          1.83108542e-02, 4.34947461e-02, 2.94667184e-02, 2.83788461e-02,
          7.24367192e-03, 5.84309176e-02, 3.53993535e-01, 3.53993535e-01,
          2.08037764e-01, 6.02917746e-02, 9.96032655e-02, 1.68951169e-01,
          3.53448302e-01, 2.21307203e-01, 3.53993535e-01, 3.53993535e-01,
          2.18265414e-01, 6.92404509e-02, 4.20649126e-02, 1.32303894e-01,
          1.20345674e-01, 1.77317142e-01, 7.32096508e-02, 1.94787428e-01,
          6.75298646e-02, 5.79887480e-02, 5.70367314e-02, 2.47143060e-02,
          1.28182650e-01, 3.30181904e-02, 2.20491737e-02, 2.04284471e-02,
          5.76371811e-02, 8.08370486e-02, 4.49140556e-02, 5.91037050e-02,
          1.21330386e-02, 1.51908502e-01, 2.46153828e-02, 2.92010009e-02,
          3.76949757e-02, 8.12113881e-02, 5.63892543e-01, 3.24957639e-01,
          2.47280538e-01, 1.72257438e-01, 2.58077562e-01, 1.34425312e-01,
          1.04444273e-01, 1.37149706e-01, 2.71981955e-01, 2.62881279e-01,
          1.29480869e-01, 1.14603490e-01, 1.06766127e-01, 2.43412703e-01,
          8.34644213e-02, 9.50821117e-02, 9.06508490e-02, 1.39476746e-01,
          1.82682529e-01, 1.37890324e-01, 1.03210039e-01, 9.48655680e-02,
          1.47172600e-01, 1.44890144e-01, 3.84980828e-01, 1.71280518e-01,
          1.36097535e-01, 3.01376939e-01, 3.84980828e-01, 3.84980828e-01,
          1.51339322e-01, 1.13169692e-01, 1.23079136e-01, 3.32479358e-01,
          1.78309381e-01, 2.47362137e-01, 7.00790808e-02, 2.99865063e-02,
          2.73343641e-02, 3.53068225e-02, 4.43948582e-02, 2.31723078e-02,
          3.65778469e-02, 3.68583947e-02, 6.00899383e-02, 9.31445211e-02,
          4.15976271e-02, 4.28743623e-02, 2.91249827e-02, 4.41257544e-02,
          2.19013207e-02, 4.28899080e-02, 5.32465093e-02, 8.33465680e-02,
          9.11308080e-02, 1.81630805e-01, 2.14434817e-01, 6.46058694e-02,
          9.87882763e-02, 1.47795796e-01, 1.80929944e-01, 2.07858816e-01,
          1.08652517e-01, 2.69624144e-01, 1.77887648e-01, 1.51386842e-01,
          6.61073998e-02, 1.64195731e-01, 2.98958033e-01, 2.98958033e-01,
          2.98958033e-01, 2.18137801e-01, 2.20292825e-02, 1.54985292e-02,
          1.83272939e-02, 1.03958417e-02, 6.58419579e-02, 6.40988499e-02,
          5.61470501e-02, 9.42090601e-02, 3.87915000e-02, 5.89262694e-02,
          3.40278335e-02, 1.96188930e-02, 1.32237216e-02, 1.67035520e-01,
          2.61103630e-01, 2.89286107e-01, 2.98958033e-01, 1.20154992e-01,
          2.09158689e-01, 1.35891870e-01, 7.88958818e-02, 2.53532417e-02,
          5.98572902e-02, 1.50965586e-01, 2.60378569e-01, 2.24584609e-01,
          1.25853613e-01, 2.60378569e-01, 2.23479375e-01, 1.48792297e-01,
          7.08131045e-02, 3.97805907e-02, 6.87490031e-02, 1.70316160e-01,
          1.14295751e-01, 1.35643288e-01, 8.84229317e-02, 5.74156940e-02,
          2.72071622e-02, 2.27771290e-02, 1.28163800e-01, 1.76357791e-01,
          2.60378569e-01, 2.23859578e-01, 9.87763330e-02, 2.60378569e-01,
          2.19980925e-01, 1.66028917e-01, 9.10269469e-02, 2.33535916e-01,
          1.72063351e-01, 2.42233455e-01, 1.84783608e-01, 1.99047580e-01,
          3.29241574e-01, 3.29241574e-01, 2.69080907e-01, 2.04579756e-01,
          9.68179032e-02, 4.99171428e-02, 3.81320529e-02, 7.84954131e-02,
          1.88673362e-01, 2.08958998e-01, 7.82616809e-02, 4.80729453e-02,
          1.03045374e-01, 1.09744325e-01, 4.36920002e-02, 2.10193451e-02,
          4.44470644e-02, 7.50357583e-02, 3.29241574e-01, 3.19326550e-01,
          2.71791875e-01, 1.89460710e-01, 2.53497273e-01, 1.03327893e-01,
          7.54926577e-02, 1.04972631e-01, 2.24620059e-01, 1.88202515e-01,
          5.97393028e-02, 5.51373027e-02, 8.58128443e-02, 8.68985280e-02,
          2.52288468e-02, 1.16433073e-02, 2.85995547e-02, 7.12439120e-02,
          1.63422287e-01, 1.65341809e-01, 2.30131701e-01, 1.48403019e-01,
          1.51974484e-01, 6.85004592e-02, 7.44046792e-02, 1.23740472e-01,
          1.62229776e-01, 1.58821478e-01, 1.80557713e-01, 2.30609357e-01,
          1.16033234e-01, 1.91861957e-01, 5.44833876e-02, 1.36827007e-01,
          1.54084474e-01, 1.57062054e-01, 1.45466119e-01, 1.38346523e-01,
          2.55513698e-01, 1.35052457e-01, 2.41865873e-01, 7.42592812e-02,
          1.28590167e-01, 7.60590285e-02, 1.32531956e-01, 1.43202975e-01,
          1.25528440e-01, 2.33628452e-01, 6.89239800e-02, 4.35233593e-01,
          5.50003536e-02, 1.28692552e-01, 6.40895963e-02, 1.37272537e-01,
          9.63162482e-02, 4.01346870e-02, 9.89500657e-02, 4.69603315e-02,
          1.67114735e-01, 8.27249438e-02, 1.42182201e-01, 1.40337512e-01,
          1.21889666e-01, 2.47873753e-01, 5.40925153e-02, 7.95222372e-02,
          3.10152993e-02, 2.97542691e-01, 3.12321991e-01, 2.80741155e-01,
          4.39486533e-01, 3.50833654e-01, 9.94584113e-02, 3.06372121e-02,
          8.20626318e-02, 2.31832787e-02, 2.36386582e-01, 6.33443967e-02,
          1.11783937e-01, 4.32392061e-02, 1.05005696e-01, 1.50831923e-01,
          5.50970621e-02, 9.53659639e-02, 2.10954174e-02, 1.76058784e-01,
          8.07427540e-02, 1.40773579e-01, 7.74627998e-02, 1.60978034e-01,
          8.90049115e-02, 2.73061618e-02, 2.02693269e-02, 2.61426028e-02,
          2.88657516e-01, 1.68832272e-01, 1.65182859e-01, 1.18466742e-01,
          1.54675141e-01, 2.52623498e-01, 8.31607133e-02, 6.09812960e-02,
          6.20026290e-02, 3.84280682e-01, 3.33878666e-01, 2.34921589e-01,
          1.88785836e-01, 3.84280682e-01, 4.83455658e-02, 1.84119288e-02,
          2.58672256e-02, 9.42611787e-03, 1.23838104e-01, 3.55319194e-02,
          3.95564586e-02, 1.55617809e-02, 5.64172231e-02, 1.38700396e-01,
          2.60084905e-02, 3.74366082e-02, 2.77418457e-02, 3.84280682e-01,
          7.21208751e-02, 4.19715345e-02, 1.87191106e-02, 1.76891893e-01,
          3.55992645e-01, 1.18370377e-01, 8.84104222e-02, 5.14739603e-02,
          5.11850357e-01, 2.45886266e-01, 1.34219319e-01, 1.59992799e-01,
          4.19318259e-01, 1.48641199e-01, 3.89068089e-02, 6.45124614e-02,
          9.84061789e-03, 4.11171801e-02, 1.48338061e-02, 2.60391291e-02,
          4.54371050e-02, 1.00676857e-01, 1.47935823e-01, 5.13198785e-02,
          6.44517913e-02, 3.24877426e-02, 4.03382957e-01, 7.34390765e-02,
          5.37791587e-02, 3.87994833e-02, 1.78298548e-01, 8.15526471e-02,
          3.40932533e-02, 7.54025280e-02, 1.58008207e-02, 4.60667238e-02,
          1.69543941e-02, 4.78913672e-02, 3.08013987e-02, 7.55345970e-02 ]
      - [ 1.50629327e-01, 1.42241091e-01, 1.17248982e-01, 6.70057535e-02,
          2.20053181e-01, 4.20125984e-02, 1.32429659e-01, 1.35224774e-01,
          1.35216817e-01, 1.64335385e-01, 1.36325464e-01, 2.38703534e-01,
          2.06165045e-01, 3.27602893e-01, 6.40545338e-02, 1.45374075e-01,
          1.00097470e-01, 1.16890341e-01, 1.46193415e-01, 1.21523730e-01,
          7.46397078e-02, 6.50141984e-02, 2.72961676e-01, 7.49684051e-02,
          1.87263891e-01, 1.05794586e-01, 1.30158246e-01, 1.56818837e-01,
          2.04079300e-01, 1.41640186e-01, 1.71057835e-01, 3.46196115e-01,
          1.18924238e-01, 2.32899815e-01, 1.32768273e-01, 1.11048624e-01,
          7.75978118e-02, 6.16706982e-02, 1.04707867e-01, 1.17357858e-01,
          2.09093779e-01, 3.68927792e-02, 6.13487363e-02, 2.52656117e-02,
          5.09803891e-02, 1.38211995e-01, 1.13184407e-01, 7.89200664e-02,
          9.42635089e-02, 2.61186004e-01, 8.28612819e-02, 1.60169691e-01,
          6.46762252e-02, 7.90030584e-02, 1.27964243e-01, 1.10281073e-01,
          1.03868440e-01, 7.71989077e-02, 1.71655521e-01, 7.26833120e-02,
          1.18507132e-01, 7.38512427e-02, 9.08589214e-02, 2.89491504e-01,
          2.32086539e-01, 5.59522569e-01, 1.94154516e-01, 2.26872712e-01,
          9.35466662e-02, 2.21438736e-01, 8.39481205e-02, 1.89576134e-01,
          2.45688334e-02, 5.57887256e-02, 1.15083031e-01, 6.29651472e-02,
          6.69551268e-02, 2.01748144e-02, 3.11239976e-02, 1.21348193e-02,
          1.32267633e-02, 1.45905599e-01, 2.66110808e-01, 3.42976332e-01,
          1.25726685e-01, 8.89328644e-02, 2.37189308e-02, 3.71613540e-02,
          2.14928761e-02, 8.30318257e-02, 4.13808040e-02, 1.50553986e-01,
          3.42976332e-01, 1.94424361e-01, 1.51019529e-01, 3.90859842e-02,
          6.53800890e-02, 1.63687579e-02, 5.95592447e-02, 1.24315068e-01,
          3.20209175e-01, 3.42976332e-01, 2.84395099e-01, 2.87322938e-01,
          1.15862802e-01, 2.15306878e-01, 7.65277743e-02, 2.23125130e-01,
          1.54810652e-01, 1.97579414e-01, 2.94920355e-01, 7.72055984e-02,
          8.67856964e-02, 6.34894297e-02, 1.21413194e-01, 8.64379033e-02,
          2.00516805e-01, 3.41932662e-02, 3.00761834e-02, 4.75804470e-02,
          6.84166551e-02, 9.64980125e-02, 9.63400677e-02, 1.61846325e-01,
          7.90703222e-02, 1.04647838e-01, 1.79742351e-01, 2.72861719e-01,
          2.94920355e-01, 2.37972781e-01, 2.00075075e-01, 1.33512512e-01,
          2.07464814e-01, 1.23960294e-01, 2.34196633e-01, 1.03008963e-01,
          1.54175967e-01, 2.26918131e-01, 2.71449983e-01, 2.24048361e-01,
          1.29023254e-01, 1.73044056e-01, 1.00177199e-01, 9.08573717e-02,
          6.17164075e-02, 5.44693209e-02, 6.73784688e-02, 5.90459742e-02,
          1.65745169e-01, 8.62023756e-02, 1.12513281e-01, 6.28039166e-02,
          5.73852658e-02, 7.32291862e-02, 9.77608114e-02, 8.27839822e-02,
          1.00436784e-01, 2.34276950e-01, 7.66854733e-02, 2.12192848e-01,
          1.02859341e-01, 5.42119481e-02, 2.11805046e-01, 8.15353021e-02,
          1.51683003e-01, 7.61417076e-02, 1.80549875e-01, 1.58487678e-01,
          8.89553949e-02, 7.35780671e-02, 1.59211695e-01, 4.75197434e-01,
          1.27121538e-01, 2.21837237e-01, 1.09108053e-01, 3.62664312e-01,
          1.43935367e-01, 2.12136760e-01, 1.00736663e-01, 2.92179912e-01,
          5.61797209e-02, 1.69386696e-02, 2.08099913e-02, 3.14326845e-02,
          7.03433305e-02, 1.03502553e-02, 2.55911723e-02, 5.90822063e-02,
          5.77498749e-02, 1.88108563e-01, 1.55072957e-01, 2.90883094e-01,
          1.36071756e-01, 1.10239699e-01, 1.75506808e-02, 4.35298719e-02,
          1.19162686e-01, 1.73691913e-01, 1.18615091e-01, 1.03030249e-01,
          2.44840190e-01, 6.70063421e-02, 1.23249829e-01, 2.05735471e-02,
          2.74284743e-02, 9.65199322e-02, 8.79094824e-02, 2.87007928e-01,
          3.33337337e-01, 3.33337337e-01, 2.93758720e-01, 2.57538080e-01,
          1.28846824e-01, 1.77305490e-01, 2.30977058e-01, 2.77204275e-01,
          1.00137040e-01, 2.36067116e-01, 3.24855298e-01, 1.55501932e-01,
          9.78642926e-02, 2.23725960e-02, 4.87596318e-02, 3.27673405e-02,
          9.26929861e-02, 1.11285411e-01, 1.79790661e-01, 3.24855298e-01,
          1.10362634e-01, 1.25161275e-01, 7.99254552e-02, 1.20693445e-01,
          6.08466193e-02, 1.86665371e-01, 1.70921698e-01, 2.14454621e-01,
          3.24855298e-01, 1.85214028e-01, 2.11913005e-01, 1.63563997e-01,
          2.82834470e-01, 8.97422954e-02, 1.43570691e-01, 8.19577649e-02,
          7.37699494e-02, 2.70055860e-01, 5.13442717e-02, 1.35085955e-01,
          9.19464305e-02, 1.50942177e-01, 4.98044007e-02, 8.07797238e-02,
          3.36014181e-01, 2.82780528e-01, 3.36014181e-01, 2.08057716e-01,
          1.51051059e-01, 1.34388357e-01, 1.66470423e-01, 1.37001172e-01,
          3.36014181e-01, 2.02725247e-01, 2.73538202e-01, 3.25086594e-01,
          2.56850958e-01, 1.51448682e-01, 5.14456779e-02, 6.72246441e-02,
          5.91684915e-02, 1.08484782e-01, 1.66001767e-01, 6.76078275e-02,
          8.25150385e-02, 3.55154723e-02, 7.38745108e-02, 3.92490625e-02,
          3.77010331e-02, 7.10080937e-02, 1.63027167e-01, 9.45806801e-02,
          7.87407011e-02, 7.38096461e-02, 4.69702408e-02, 5.25387339e-02,
          2.11881176e-02, 2.74005923e-02, 4.22549024e-02, 7.47418031e-02,
          1.43281654e-01, 2.05335654e-02, 2.84621790e-02, 3.32383476e-02,
          1.49930716e-01, 4.77981530e-02, 1.91633962e-02, 4.01863791e-02,
          1.25559032e-01, 3.98838252e-01, 7.59175047e-02, 9.95162725e-02,
          7.33301342e-02, 2.09349886e-01, 5.08544892e-02, 6.15900494e-02,
          7.82883093e-02, 3.87174129e-01, 1.49036512e-01, 1.55936796e-02,
          2.22200528e-02, 3.97913158e-02, 1.80130705e-01, 4.19697464e-02,
          4.00501154e-02, 7.37859532e-02, 1.75437942e-01, 3.98838252e-01,
          6.09736070e-02, 7.96607584e-02, 9.29839760e-02, 2.74494678e-01,
          7.26486146e-02, 8.67740437e-02, 1.50686726e-01, 3.98838252e-01,
          2.32437804e-01, 1.56372115e-01, 2.91466355e-01, 5.64268380e-02,
          8.67365450e-02, 3.56926210e-02, 5.67693338e-02, 8.20254758e-02,
          9.41387862e-02, 9.61206853e-02, 2.50308901e-01, 2.91466355e-01,
          1.15313075e-01, 1.41769782e-01, 1.24197707e-01, 1.33592665e-01,
          9.78117958e-02, 5.90144731e-02, 2.91466355e-01, 8.60219821e-02,
          1.66509613e-01, 5.77213056e-02, 1.70302942e-01, 1.98240370e-01,
          1.97564483e-01, 1.49992317e-01, 1.19814664e-01, 7.89071620e-02,
          8.85862038e-02, 2.32919544e-01, 5.97109608e-02, 2.56027997e-01,
          2.91466355e-01, 2.46508017e-01, 1.20810091e-01, 3.07413060e-02,
          2.31364861e-01, 1.63598344e-01, 3.46580833e-01, 1.55740365e-01,
          3.37954700e-01, 3.46580833e-01, 3.46580833e-01, 1.43033966e-01,
          1.24027766e-01, 1.47036463e-01, 1.11596342e-02, 4.64409329e-02,
          4.69489954e-02, 2.85389543e-01, 1.61770687e-01, 2.87446350e-01,
          7.72741437e-02, 5.64949252e-02, 1.19199231e-01, 3.88521068e-02,
          1.20698929e-01, 4.11276855e-02, 2.09756657e-01, 1.70220196e-01,
          1.38867527e-01, 5.35723679e-02, 4.81250063e-02, 9.03977975e-02,
          1.42392237e-02, 2.48199794e-02, 1.70458239e-02, 1.10616952e-01,
          2.75175348e-02, 4.56341170e-02, 2.67024506e-02, 3.97134945e-02,
          1.34277433e-01, 7.95371905e-02, 9.06216130e-02, 1.01549894e-01,
          4.35317367e-01, 6.48846999e-02, 1.18733481e-01, 1.87843889e-01,
          1.59449205e-01, 1.77617386e-01, 1.20163590e-01, 1.54277802e-01,
          1.06099218e-01, 2.91705579e-01, 1.03478886e-01, 9.28486586e-02,
          1.64926112e-01, 1.77742288e-01, 1.03746071e-01, 1.03195392e-01,
          1.43794999e-01, 7.26953670e-02, 3.41629565e-01, 2.89046112e-02,
          1.00504927e-01, 9.80187580e-02, 1.09002613e-01, 1.52900517e-01,
          1.53429449e-01, 1.66546270e-01, 7.82329366e-02, 3.34376961e-01,
          9.57055613e-02, 7.48732388e-02, 9.88935307e-02, 1.47902131e-01,
          1.10682033e-01, 4.21166532e-02, 7.81593397e-02, 8.54049101e-02,
          2.15231478e-01, 5.55799492e-02, 1.10601731e-01, 1.01770364e-01,
          1.62695602e-01, 5.35189986e-01, 4.49257605e-02, 9.19760242e-02,
          1.36547431e-01, 3.97045374e-01, 1.39840320e-01, 1.20710671e-01,
          1.71425864e-01, 3.78745168e-01, 8.60253349e-02, 7.88715631e-02,
          7.42280036e-02, 3.03251930e-02, 2.15606377e-01, 3.08955722e-02,
          5.49340434e-02, 6.48229197e-02, 7.50029683e-02, 7.93004781e-02,
          6.01843223e-02, 6.70738667e-02, 3.57729048e-02, 2.65156418e-01,
          7.36832693e-02, 8.71921852e-02, 5.85767515e-02, 6.94202408e-02,
          2.25150451e-01, 2.92492770e-02, 5.76052703e-02, 6.33320585e-02,
          3.12619209e-01, 3.45544040e-01, 3.34870756e-01, 1.22389361e-01,
          8.33813548e-02, 2.44975299e-01, 4.78882119e-02, 7.75589719e-02,
          1.04528673e-01, 3.69324416e-01, 3.69324416e-01, 3.69324416e-01,
          1.11696117e-01, 6.58291951e-02, 7.98014179e-02, 2.44889446e-02,
          3.76508832e-02, 2.27949787e-02, 8.65197331e-02, 3.69973183e-02,
          6.05395585e-02, 2.38809511e-02, 3.42063121e-02, 1.58418328e-01,
          3.04126013e-02, 3.73292640e-02, 5.22552058e-02, 1.25866055e-01,
          4.28524949e-02, 7.38345012e-02, 2.28435565e-02, 6.33251518e-02,
          2.48875797e-01, 7.44150132e-02, 8.34703147e-02, 1.16718985e-01,
          6.30913198e-01, 2.84286588e-01, 2.72009522e-01, 7.59884343e-02,
          9.62297544e-02, 9.79911759e-02, 8.42045918e-02, 8.19500312e-02,
          3.10807545e-02, 2.16429830e-01, 4.25375551e-02, 4.75560278e-02,
          4.45499979e-02, 8.42224061e-02, 2.07507655e-01, 4.33358923e-02,
          3.79653871e-02, 8.96753520e-02, 2.45473981e-01, 5.53440973e-02,
          1.11615032e-01, 5.29275686e-02, 1.23291589e-01, 1.10489294e-01,
          7.68267140e-02, 7.01252073e-02, 9.04760882e-02, 2.24067226e-01,
          8.05184618e-02, 8.45506042e-02, 3.96483578e-02, 9.14969444e-02,
          1.25083163e-01, 1.07314087e-01, 1.12622783e-01, 6.65753186e-02,
          2.69173831e-01, 9.10458267e-02, 1.05772570e-01, 8.95694271e-02,
          1.37237743e-01, 1.19991921e-01, 1.03559129e-01, 7.95596614e-02,
          7.81158358e-02, 3.06669146e-01, 1.60340562e-01, 1.38064042e-01,
          1.60947844e-01, 1.56491280e-01, 1.91619784e-01, 1.05616823e-01,
          1.17261529e-01, 1.34490177e-01, 3.44823688e-01, 9.52453837e-02,
          1.04769111e-01, 6.95319697e-02, 1.98904693e-01, 1.61912143e-01,
          7.40068629e-02, 1.18700191e-01, 8.52225423e-02, 4.21025544e-01,
          1.41822115e-01, 1.20443687e-01, 1.52732641e-01, 2.21714124e-01 ]
      - [ 1.30172879e-01, 5.57405762e-02, 8.56992155e-02, 6.76191822e-02,
          3.05189788e-01, 1.16222180e-01, 1.02120720e-01, 1.25418887e-01,
          1.79486915e-01, 1.93627313e-01, 1.17990874e-01, 1.19945511e-01,
          1.41655773e-01, 3.36216211e-01, 1.09772660e-01, 1.05508514e-01,
          6.86169565e-02, 1.93244874e-01, 1.19326808e-01, 1.12152658e-01,
          9.34098661e-02, 7.90622011e-02, 3.25553536e-01, 1.52383581e-01,
          1.36704504e-01, 1.55162901e-01, 1.54586658e-01, 1.65247053e-01,
          1.49262428e-01, 1.61608636e-01, 8.54075477e-02, 3.67289782e-01,
          1.05801448e-01, 1.35387138e-01, 1.13523722e-01, 1.76283166e-01,
          6.74090907e-02, 4.50898260e-02, 3.90987471e-02, 4.78144735e-02,
          1.32171214e-01, 4.64490354e-02, 4.93524671e-02, 2.56524291e-02,
          5.53769842e-02, 2.01619118e-01, 4.12248299e-02, 3.49825770e-02,
          8.65429342e-02, 2.23910257e-01, 5.08193970e-02, 9.89424661e-02,
          4.30235490e-02, 1.01626612e-01, 7.32993335e-02, 6.16404377e-02,
          6.34782165e-02, 1.99236684e-02, 1.73790187e-01, 2.66957991e-02,
          3.44127268e-02, 3.51768062e-02, 6.54793605e-02, 2.84725398e-01,
          8.06130618e-02, 9.94635224e-02, 1.36460766e-01, 5.70630014e-01,
          4.15186167e-01, 3.82710814e-01, 9.59716216e-02, 1.06728852e-01,
          1.23664558e-01, 2.36831103e-02, 2.88073272e-02, 3.91879119e-02,
          9.85226557e-02, 3.96022089e-02, 6.25953376e-02, 1.65873319e-02,
          4.39318828e-02, 6.68387711e-02, 2.03607045e-02, 3.11463904e-02,
          2.01201010e-02, 7.87336454e-02, 3.66069674e-02, 5.60000986e-02,
          2.16340758e-02, 2.82780733e-02, 2.10753486e-01, 4.09134850e-02,
          7.35866725e-02, 9.26921666e-02, 3.53785127e-01, 3.53785127e-01,
          3.53785127e-01, 1.27698451e-01, 5.92278093e-02, 2.78708547e-01,
          2.90503781e-02, 6.27908334e-02, 7.23683387e-02, 3.36211383e-01,
          3.53785127e-01, 3.53785127e-01, 1.53044224e-01, 1.12927914e-01,
          5.48096858e-02, 3.92657556e-02, 4.38111834e-02, 2.85258628e-02,
          1.82171777e-01, 5.12451492e-02, 5.49745858e-02, 4.00605872e-02,
          4.85197753e-02, 7.19367787e-02, 6.67017922e-02, 6.97549880e-02,
          3.38903069e-02, 1.85681999e-01, 2.35258397e-02, 5.34583889e-02,
          5.93075678e-02, 6.58012182e-02, 5.58998525e-01, 4.19461951e-02,
          8.37020054e-02, 1.29453465e-01, 3.68020833e-01, 1.13177605e-01,
          1.09177552e-01, 1.72561333e-01, 4.16935652e-01, 1.24964610e-01,
          4.84045446e-02, 9.06589404e-02, 1.00715384e-01, 2.59780079e-01,
          7.04055205e-02, 1.40667617e-01, 1.25859052e-01, 1.91164598e-01,
          1.00777745e-01, 1.04876541e-01, 1.17110290e-01, 5.40621169e-02,
          2.23177105e-01, 5.75102344e-02, 5.01050092e-02, 6.76672459e-02,
          9.49738622e-02, 9.39072445e-02, 8.47422034e-02, 1.22942962e-01,
          6.68344647e-02, 3.25871050e-01, 2.41090879e-02, 8.80311057e-02,
          8.85895342e-02, 9.79310274e-02, 1.57678276e-01, 1.07224457e-01,
          1.28405079e-01, 1.03847906e-01, 2.58479595e-01, 9.19065848e-02,
          9.19514298e-02, 1.63226187e-01, 1.62469298e-01, 1.61924779e-01,
          8.39748308e-02, 9.73229483e-02, 1.20083347e-01, 5.81755519e-01,
          8.47857744e-02, 1.40384093e-01, 2.29958490e-01, 2.04226390e-01,
          7.07661435e-02, 7.96825066e-03, 1.46099795e-02, 1.26588708e-02,
          7.88357928e-02, 2.52097435e-02, 3.90996560e-02, 1.92332622e-02,
          2.70372313e-02, 9.80504379e-02, 4.25207876e-02, 1.38928548e-01,
          3.93725634e-02, 1.80413321e-01, 1.62173212e-01, 1.31771475e-01,
          4.97460738e-02, 3.92415300e-02, 1.29154146e-01, 1.07019683e-02,
          5.14919870e-02, 4.61365543e-02, 2.56510913e-01, 1.64149955e-01,
          2.92046547e-01, 7.26373047e-02, 5.06535433e-02, 2.37178460e-01,
          2.17251569e-01, 3.43643337e-01, 1.96301818e-01, 3.43643337e-01,
          3.43643337e-01, 3.43643337e-01, 1.58137172e-01, 1.49439767e-01,
          6.96685687e-02, 9.24507976e-02, 2.35853270e-01, 5.30642346e-02,
          2.01033786e-01, 2.40761414e-01, 1.99391738e-01, 1.11230120e-01,
          2.61575803e-02, 3.02388668e-01, 9.54119638e-02, 1.77982464e-01,
          5.98885417e-02, 1.55310407e-01, 1.62845150e-01, 1.71848655e-01,
          1.48295119e-01, 1.50779963e-01, 1.04998805e-01, 2.73612916e-01,
          3.02388668e-01, 1.26232922e-01, 1.47837713e-01, 1.10563114e-01,
          1.20924205e-01, 1.05120480e-01, 6.60919249e-02, 2.97125548e-01,
          1.77584395e-01, 3.02388668e-01, 6.67529926e-02, 1.04634933e-01,
          3.52815278e-02, 6.10716268e-02, 8.99505839e-02, 1.26978919e-01,
          3.96196216e-01, 5.07169254e-02, 6.41749278e-02, 8.30593109e-02,
          2.66829282e-01, 5.79949617e-02, 6.89660087e-02, 1.27131402e-01,
          3.96196216e-01, 1.50241524e-01, 1.70096997e-02, 2.50342172e-02,
          4.18578722e-02, 1.96588457e-01, 4.89330776e-02, 4.41333987e-02,
          7.87306204e-02, 1.74706712e-01, 3.96196216e-01, 6.70522973e-02,
          8.91133249e-02, 7.27322921e-02, 2.27432191e-01, 5.93729578e-02,
          5.77817224e-02, 6.98588863e-02, 3.74290347e-01, 1.64627284e-01,
          3.13851796e-02, 4.62373868e-02, 4.29646932e-02, 1.75673068e-01,
          6.35354370e-02, 2.49408465e-02, 4.88269329e-02, 1.40863568e-01,
          7.57470727e-02, 6.17876723e-02, 5.63831218e-02, 3.39357182e-02,
          3.21262404e-02, 1.32528888e-02, 1.71545781e-02, 2.78292131e-02,
          5.66466190e-02, 1.61638081e-01, 6.64757118e-02, 9.31953415e-02,
          3.01159602e-02, 6.22124486e-02, 4.01786603e-02, 3.52348946e-02,
          6.27179295e-02, 1.62817642e-01, 1.90125972e-01, 2.53609747e-01,
          3.02687764e-01, 2.47945622e-01, 1.45013556e-01, 5.14313467e-02,
          6.34698123e-02, 5.80217391e-02, 1.00965805e-01, 3.25284302e-01,
          3.06361794e-01, 3.25284302e-01, 2.32922494e-01, 1.92866459e-01,
          1.67867899e-01, 2.19102725e-01, 1.62240401e-01, 3.25284302e-01,
          6.54696375e-02, 7.54460543e-02, 2.75303185e-01, 4.83435392e-02,
          1.04618393e-01, 7.31497034e-02, 1.20280936e-01, 3.79370190e-02,
          6.61451444e-02, 1.77332520e-01, 2.32274339e-01, 3.33088130e-01,
          1.93177447e-01, 1.91819236e-01, 1.35830075e-01, 2.35687196e-01,
          9.09462199e-02, 1.52847975e-01, 9.55776274e-02, 1.88616887e-01,
          3.33088130e-01, 1.25557721e-01, 1.33938476e-01, 7.56434873e-02,
          1.20147817e-01, 5.50385229e-02, 1.71345815e-01, 1.17140248e-01,
          2.63054878e-01, 3.33088130e-01, 1.79534614e-01, 1.07965313e-01,
          2.42867265e-02, 5.23507223e-02, 4.01697010e-02, 1.06239356e-01,
          2.85265952e-01, 3.24046016e-01, 3.36282700e-01, 2.73955286e-01,
          2.51232922e-01, 1.00048169e-01, 1.34869084e-01, 2.41613150e-01,
          2.79225290e-01, 1.31635055e-01, 9.57799554e-02, 2.24378854e-01,
          7.52167329e-02, 1.51875481e-01, 2.40987074e-02, 3.83865535e-02,
          1.11296102e-01, 1.02198035e-01, 2.05855012e-01, 1.53846249e-01,
          2.75459856e-01, 1.36997610e-01, 1.22814491e-01, 1.89273469e-02,
          4.82365564e-02, 1.32751152e-01, 1.91987291e-01, 7.29162991e-02,
          2.79556829e-02, 3.10919415e-02, 4.18290235e-02, 9.65672508e-02,
          1.71258319e-02, 4.27409969e-02, 7.44845569e-02, 7.24742338e-02,
          3.33808303e-01, 9.63570476e-02, 1.73757032e-01, 9.57712755e-02,
          3.22552830e-01, 1.35546595e-01, 2.03992292e-01, 9.96347517e-02,
          2.15800568e-01, 2.15708435e-01, 9.71864238e-02, 1.88452020e-01,
          9.64153558e-02, 2.18083605e-01, 1.89287722e-01, 1.14383012e-01,
          9.39111039e-02, 1.72036618e-01, 9.17696357e-02, 1.23020865e-01,
          9.06932503e-02, 1.25073969e-01, 2.62930751e-01, 9.03707072e-02,
          2.44631052e-01, 1.16431274e-01, 6.45329654e-02, 9.97261778e-02,
          8.67697373e-02, 1.04528040e-01, 8.58275369e-02, 2.60974735e-01,
          1.41717136e-01, 1.74647689e-01, 9.98604819e-02, 9.59437042e-02,
          7.77933821e-02, 1.15466304e-01, 1.69989288e-01, 2.09210128e-01,
          1.76427886e-01, 1.11575440e-01, 1.51217505e-01, 8.54855105e-02,
          8.29422027e-02, 1.68130949e-01, 2.86863267e-01, 3.05233568e-01,
          2.25823954e-01, 2.00941637e-01, 1.29171580e-01, 2.08560050e-01,
          1.19143516e-01, 2.36735165e-01, 4.00133952e-02, 3.30373533e-02,
          4.65363115e-02, 5.77930696e-02, 8.94824043e-02, 8.94512087e-02,
          1.60480842e-01, 8.31849724e-02, 1.21075615e-01, 2.23256126e-01,
          2.72010148e-01, 3.05233568e-01, 9.22215581e-02, 9.73359570e-02,
          6.23617247e-02, 1.27861336e-01, 9.85159203e-02, 2.49573588e-01,
          1.03976622e-01, 3.04091126e-01, 3.54053110e-01, 2.83776253e-01,
          2.68882960e-01, 9.64815617e-02, 1.79070652e-01, 5.85941076e-02,
          1.77516252e-01, 4.65695374e-02, 1.43185094e-01, 3.54053110e-01,
          2.01887116e-01, 1.59716979e-01, 4.19195592e-02, 7.02912435e-02,
          1.85833778e-02, 5.68582751e-02, 1.65408030e-01, 2.87062198e-01,
          3.54053110e-01, 1.35323957e-01, 9.73553136e-02, 2.66944505e-02,
          4.08686846e-02, 2.23602783e-02, 8.25935081e-02, 3.70500199e-02,
          7.15655610e-02, 1.33216605e-01, 7.28185996e-02, 9.07090381e-02,
          2.86478102e-02, 4.59349602e-02, 1.95741989e-02, 2.02934556e-02,
          2.36227080e-01, 1.72666833e-01, 3.58759642e-01, 1.57049984e-01,
          2.19989702e-01, 8.84834379e-02, 2.05489323e-01, 7.90573657e-02,
          1.47765949e-01, 1.30775630e-01, 1.37364447e-01, 1.31281555e-01,
          1.08671777e-01, 2.26433501e-01, 8.96881819e-02, 1.39997020e-01,
          8.78640786e-02, 8.91632885e-02, 1.63936391e-01, 1.33844286e-01,
          9.92473513e-02, 1.18602596e-01, 3.31044883e-01, 9.65895802e-02,
          1.77447394e-01, 7.17310533e-02, 9.72613543e-02, 1.26886889e-01,
          9.76211205e-02, 1.81676954e-01, 1.94118395e-01, 3.41172904e-01,
          5.30884974e-02, 9.20272842e-02, 4.13914695e-02, 8.67508575e-02,
          1.26026154e-01, 1.46574527e-01, 1.07094646e-01, 1.27739951e-01,
          2.72830546e-01, 8.47828239e-02, 1.75624728e-01, 9.61481258e-02,
          9.08178240e-02, 1.61138862e-01, 1.24758184e-01, 8.04395601e-02,
          5.13724387e-02, 2.60336488e-01, 7.52453730e-02, 1.75472930e-01,
          1.08384833e-01, 1.47617802e-01, 1.68185547e-01, 1.37889713e-01,
          2.38752887e-01, 2.03838140e-01, 3.19889784e-01, 6.50797114e-02,
          1.53086036e-01, 1.12009510e-01, 1.22585371e-01, 1.96955338e-01,
          1.93172932e-01, 1.63010851e-01, 8.53453204e-02, 3.07726443e-01,
          4.92750108e-02, 1.65933028e-01, 1.88304275e-01, 1.80693001e-01 ]
      - [ 1.88015580e-01, 5.91620319e-02, 9.56009403e-02, 1.24875885e-02,
          2.67397046e-01, 0., 9.03397575e-02, 3.01249735e-02,
          1.77825257e-01, 2.27268189e-01, 1.60022900e-01, 2.40549952e-01,
          5.65713309e-02, 2.01955855e-01, 0., 1.09638490e-01,
          3.67416367e-02, 1.91672042e-01, 2.32626379e-01, 9.37917754e-02,
          1.39750004e-01, 1.93216407e-03, 2.50203967e-01, 2.05562660e-03,
          1.24730892e-01, 4.07798402e-02, 2.09884465e-01, 3.37423235e-01,
          1.64168403e-01, 2.65098363e-01, 7.54663870e-02, 2.36722469e-01,
          1.93531290e-02, 1.20370641e-01, 1.14855722e-01, 3.03537697e-01,
          1.08864583e-01, 8.29495937e-02, 1.31882250e-01, 1.45392306e-02,
          6.15685657e-02, 0., 4.13593575e-02, 1.39326649e-02,
          9.68349203e-02, 1.02615170e-01, 7.43557587e-02, 9.02930200e-02,
          2.96407063e-02, 1.55767605e-01, 7.47082103e-03, 3.19475792e-02,
          3.25749442e-02, 9.87097844e-02, 2.73297966e-01, 7.99666122e-02,
          1.10251822e-01, 4.17833403e-02, 1.01337552e-01, 1.86994653e-02,
          7.78881088e-02, 1.46029234e-01, 2.56217808e-01, 5.71339548e-01,
          3.29601973e-01, 2.22506151e-01, 1.17461964e-01, 2.18817875e-01,
          2.06315070e-02, 9.51908678e-02, 1.15730993e-01, 3.35284323e-01,
          1.63054112e-02, 3.64067592e-02, 5.45976870e-02, 1.36017865e-02,
          3.30623053e-02, 4.22151573e-03, 8.36117938e-03, 1.09444000e-02,
          2.04245206e-02, 8.69654119e-02, 1.25384182e-01, 2.06614226e-01,
          1.29568838e-02, 5.49728908e-02, 4.03204858e-02, 2.69337036e-02,
          5.93542084e-02, 9.74632800e-02, 1.18234307e-01, 2.26403818e-01,
          3.28547835e-01, 1.55142665e-01, 1.79677963e-01, 1.64644029e-02,
          3.15222442e-02, 1.97286308e-02, 5.95189817e-02, 1.97463959e-01,
          3.71099830e-01, 3.71099830e-01, 2.93035597e-01, 3.71099830e-01,
          1.82742268e-01, 1.32162616e-01, 2.10422248e-01, 1.93398148e-01,
          1.17824547e-01, 9.32719857e-02, 1.41031489e-01, 7.42254872e-03,
          8.84981081e-02, 8.49124491e-02, 5.34929968e-02, 1.17064372e-01,
          1.14363611e-01, 3.88442092e-02, 9.75227635e-03, 1.30212642e-02,
          1.71669875e-03, 5.56553341e-02, 2.24635340e-02, 3.84107418e-02,
          4.16592397e-02, 4.10709120e-02, 2.17675835e-01, 3.21613520e-01,
          3.68819922e-01, 2.33708173e-01, 3.68819922e-01, 3.68819922e-01,
          1.72226131e-01, 3.68819922e-01, 2.19235018e-01, 4.83208150e-02,
          1.57924257e-02, 3.76338139e-02, 6.27619773e-02, 1.72895998e-01,
          1.38832495e-01, 5.94274886e-02, 9.19041187e-02, 4.96383160e-02,
          5.37430756e-02, 2.75712200e-02, 3.65039296e-02, 9.39482637e-03,
          6.22699820e-02, 8.30117334e-03, 3.35189998e-02, 1.05493255e-02,
          3.77403274e-02, 1.23021357e-01, 4.66847233e-02, 7.35261217e-02,
          5.96346334e-02, 1.09628387e-01, 8.89617428e-02, 5.43939471e-02,
          8.11214149e-02, 1.14756174e-01, 1.74865514e-01, 7.58476183e-02,
          5.83912171e-02, 6.61576167e-02, 1.38021424e-01, 9.49691534e-02,
          1.91104949e-01, 9.89239439e-02, 2.10012093e-01, 2.17532173e-01,
          4.48582649e-01, 4.48582649e-01, 1.84347242e-01, 1.72000721e-01,
          2.02457309e-01, 2.14864463e-01, 1.65976614e-01, 3.52539003e-01,
          7.66029358e-02, 4.30890769e-02, 6.70419559e-02, 3.39260474e-02,
          3.99702005e-02, 6.21685311e-02, 1.84548851e-02, 6.56129867e-02,
          9.59931165e-02, 1.62668869e-01, 2.70329744e-01, 2.48020545e-01,
          8.02276134e-02, 5.27190976e-02, 7.40497559e-02, 1.94517095e-02,
          6.31220490e-02, 1.25358224e-01, 8.24568123e-02, 3.06933343e-01,
          3.47369492e-01, 1.37620881e-01, 9.32138860e-02, 8.28833804e-02,
          2.36916430e-02, 6.36213943e-02, 1.36233211e-01, 1.33812428e-01,
          3.47369492e-01, 3.47369492e-01, 3.33632380e-01, 2.54700810e-01,
          1.22809082e-01, 2.28936598e-02, 8.05094317e-02, 1.76519319e-01,
          1.66978300e-01, 2.81695873e-01, 2.81695873e-01, 1.55160114e-01,
          1.16175644e-01, 4.80898321e-02, 4.89946380e-02, 3.03450879e-02,
          7.10722432e-02, 1.95024386e-01, 2.81695873e-01, 2.81695873e-01,
          2.26806849e-01, 2.81695873e-01, 8.80581215e-02, 1.56468317e-01,
          9.24842283e-02, 1.82507321e-01, 1.14455305e-01, 2.81695873e-01,
          2.81695873e-01, 2.08478183e-01, 1.56668931e-01, 6.76901266e-02,
          3.73087004e-02, 3.67059819e-02, 8.24586377e-02, 1.66052684e-01,
          1.25812516e-01, 1.17815144e-01, 7.37987310e-02, 8.05578977e-02,
          2.94500776e-02, 8.48666579e-02, 4.66316603e-02, 1.65264606e-01,
          3.18931490e-01, 2.27006793e-01, 3.32630605e-01, 3.24497819e-01,
          3.32630605e-01, 2.57533133e-01, 1.71032578e-01, 1.83962911e-01,
          2.79725909e-01, 6.60265759e-02, 2.18334533e-02, 4.69348654e-02,
          8.61581489e-02, 1.76063985e-01, 9.22300816e-02, 3.01848631e-02,
          4.18340601e-02, 5.07699847e-02, 3.12308073e-01, 8.70887265e-02,
          6.38608262e-02, 1.17873542e-01, 1.84529588e-01, 4.63881418e-02,
          7.96850100e-02, 5.55314496e-02, 2.40342557e-01, 7.89324716e-02,
          3.43506895e-02, 3.49780582e-02, 3.57500575e-02, 8.99640545e-02,
          2.59716753e-02, 2.38188058e-02, 2.50189044e-02, 6.00360222e-02,
          6.75713420e-02, 2.85996050e-02, 1.74898151e-02, 2.58191023e-02,
          8.14805403e-02, 9.32678804e-02, 1.70690790e-01, 8.65689665e-02,
          1.31234497e-01, 1.02083772e-01, 3.00968081e-01, 3.23040038e-01,
          1.55772567e-01, 2.50395924e-01, 1.85889140e-01, 2.88586438e-01,
          9.63964984e-02, 2.35172212e-01, 2.79492997e-02, 2.06727441e-02,
          2.20494457e-02, 1.12613225e-02, 8.45069364e-02, 6.20978326e-02,
          1.06644377e-01, 5.69518059e-02, 6.64577335e-02, 9.79178250e-02,
          1.51614949e-01, 1.61212191e-01, 1.46015882e-01, 3.23040038e-01,
          3.08549911e-01, 3.00099880e-01, 8.18909183e-02, 1.95981294e-01,
          3.78252119e-02, 2.98008412e-01, 3.03708166e-01, 1.98947623e-01,
          2.21151531e-01, 4.94563952e-02, 5.70741668e-02, 1.32227670e-02,
          7.34950528e-02, 2.63572335e-02, 2.77405620e-01, 3.03708166e-01,
          3.00808936e-01, 3.03708166e-01, 3.98903564e-02, 1.64324287e-02,
          1.38662932e-02, 4.50382344e-02, 5.64473942e-02, 1.08338051e-01,
          1.82003319e-01, 1.59917727e-01, 3.03708166e-01, 1.44386619e-01,
          8.61517265e-02, 2.36763470e-02, 9.53999460e-02, 4.10760045e-02,
          1.07305489e-01, 2.13211432e-01, 1.50555819e-01, 2.57646292e-01,
          4.54213731e-02, 3.19622420e-02, 8.45733564e-03, 5.80255240e-02,
          7.85357282e-02, 3.35976750e-01, 4.18242514e-01, 4.18242514e-01,
          4.18242514e-01, 9.97580737e-02, 4.12201099e-02, 4.24066857e-02,
          9.84560028e-02, 1.09529644e-01, 5.42789213e-02, 4.40704040e-02,
          4.03094962e-02, 7.91049600e-02, 2.49067992e-02, 4.04548384e-02,
          5.65735400e-02, 1.21302992e-01, 6.98450357e-02, 1.47446185e-01,
          2.74695873e-01, 1.91479817e-01, 3.27299714e-01, 5.42411320e-02,
          6.12183139e-02, 3.64297666e-02, 8.76962692e-02, 6.03449978e-02,
          3.92665602e-02, 4.48354296e-02, 4.33355980e-02, 6.45750761e-02,
          1.15300603e-02, 4.73328419e-02, 5.35394922e-02, 6.20983057e-02,
          3.76963705e-01, 1.42072260e-01, 1.21999420e-01, 6.68576807e-02,
          1.57899514e-01, 2.08460838e-02, 1.09097898e-01, 1.47148445e-01,
          3.12399954e-01, 2.35632882e-01, 1.95112273e-01, 1.42675832e-01,
          3.74781415e-02, 1.60649180e-01, 2.83774976e-02, 1.09969191e-01,
          7.74291307e-02, 2.04605669e-01, 2.13157624e-01, 1.15108773e-01,
          1.42956197e-01, 1.15415670e-01, 2.06526905e-01, 1.76095553e-02,
          1.64845988e-01, 1.11390285e-01, 1.91840798e-01, 2.22574100e-01,
          8.78687352e-02, 1.09081052e-01, 2.51621120e-02, 2.58700788e-01,
          5.93436845e-02, 2.20947802e-01, 8.25603157e-02, 2.08058774e-01,
          4.61932234e-02, 4.74600792e-02, 6.89048991e-02, 2.24327967e-02,
          1.48155019e-01, 3.05935349e-02, 5.47836348e-02, 4.70587350e-02,
          4.92904447e-02, 1.82162359e-01, 5.99218868e-02, 3.75369638e-02,
          8.09160843e-02, 6.00569904e-01, 4.57683802e-01, 1.68217286e-01,
          1.74416110e-01, 4.31157470e-01, 4.08262499e-02, 2.59947125e-02,
          2.80559454e-02, 1.16126183e-02, 1.04708768e-01, 2.87715420e-02,
          3.53214666e-02, 3.59815173e-02, 4.62812111e-02, 7.02529475e-02,
          3.92328650e-02, 3.88057381e-02, 3.09931231e-03, 2.03180552e-01,
          3.15672904e-02, 1.93919428e-02, 5.16887940e-02, 1.45855293e-01,
          1.79921627e-01, 7.00698495e-02, 5.66928983e-02, 1.03893653e-01,
          4.91592944e-01, 4.43965018e-01, 9.26220343e-02, 1.52420059e-01,
          3.80149484e-01, 1.24903552e-01, 9.03124660e-02, 1.70863435e-01,
          6.45807236e-02, 3.40246290e-01, 1.38689280e-01, 8.61338452e-02,
          6.29745126e-02, 1.74138173e-01, 7.41035566e-02, 4.78976332e-02,
          3.96833345e-02, 1.07545825e-02, 1.67297632e-01, 4.68986705e-02,
          1.45586748e-02, 5.42957820e-02, 1.29093409e-01, 6.98159859e-02,
          2.96085142e-02, 3.21547091e-02, 2.45707408e-02, 1.21672548e-01,
          3.85816507e-02, 5.04632741e-02, 5.19219711e-02, 8.03833157e-02,
          2.01038837e-01, 1.56358570e-01, 3.11137736e-01, 6.17070384e-02,
          4.02934909e-01, 6.10109940e-02, 1.95217475e-01, 1.26697540e-01,
          2.49146014e-01, 1.55949548e-01, 1.53165311e-01, 1.47594899e-01,
          1.07363522e-01, 2.59133071e-01, 2.44139433e-02, 1.28776595e-01,
          1.08628385e-01, 1.43476874e-01, 1.81765571e-01, 5.24130538e-02,
          1.20784588e-01, 2.89533045e-02, 2.20567644e-01, 2.95080338e-02,
          1.24513611e-01, 1.38947666e-01, 2.07349464e-01, 1.70530096e-01,
          8.11662748e-02, 1.04143687e-01, 2.61547174e-02, 2.29458526e-01,
          3.49840857e-02, 1.11531675e-01, 1.39938653e-01, 1.82065591e-01,
          1.71591923e-01, 1.29212528e-01, 1.30283251e-01, 1.02810942e-01,
          2.68572956e-01, 6.01968579e-02, 1.35403335e-01, 7.72688910e-02,
          1.30444244e-01, 1.96943864e-01, 5.34173772e-02, 8.51695016e-02,
          6.34557158e-02, 2.96412140e-01, 9.23206359e-02, 2.61361092e-01,
          1.38282493e-01, 1.81965217e-01, 1.82330236e-01, 1.14931077e-01,
          1.15404993e-01, 6.36477768e-02, 2.69043237e-01, 1.07110515e-01,
          1.42215326e-01, 1.11928709e-01, 1.68378279e-01, 2.54353285e-01,
          9.14837494e-02, 8.32401142e-02, 6.65671229e-02, 3.23537141e-01,
          1.18549712e-01, 2.19294861e-01, 1.40082434e-01, 2.24144071e-01 ]
      - [ 1.03501163e-01, 9.31276679e-02, 1.43151253e-01, 8.61576349e-02,
          2.08279833e-01, 9.32094678e-02, 1.69917375e-01, 1.75511599e-01,
          1.39531687e-01, 1.01947680e-01, 4.55032550e-02, 1.34119377e-01,
          1.29142821e-01, 1.60045341e-01, 1.51413873e-01, 2.09770218e-01,
          2.05051050e-01, 1.85714111e-01, 1.18906401e-01, 6.51905313e-02,
          1.54883087e-01, 6.72782809e-02, 2.60063410e-01, 1.66455716e-01,
          2.17130497e-01, 2.14094147e-01, 1.34199783e-01, 1.60094410e-01,
          7.78925717e-02, 2.17857033e-01, 1.18731350e-01, 2.24611685e-01,
          1.82444587e-01, 2.08018586e-01, 2.77731419e-01, 2.11860538e-01,
          5.15488088e-02, 1.18121551e-02, 4.30011675e-02, 2.35833284e-02,
          8.87408406e-02, 5.47223315e-02, 5.54916970e-02, 4.83287647e-02,
          7.01254606e-02, 6.65652528e-02, 1.26270643e-02, 4.49527241e-02,
          1.89048424e-02, 1.10262409e-01, 8.21343735e-02, 5.75707555e-02,
          5.13118766e-02, 7.49109164e-02, 1.32368550e-01, 3.95019203e-02,
          8.09949636e-02, 7.45928884e-02, 1.68208808e-01, 1.34629458e-01,
          1.25216082e-01, 1.48019865e-01, 1.69013798e-01, 5.41156709e-01,
          1.76577419e-01, 2.92896658e-01, 1.19236037e-01, 1.67980805e-01,
          1.68786585e-01, 1.49957493e-01, 2.82310486e-01, 4.51720417e-01,
          3.25578824e-02, 1.23998672e-02, 2.34637037e-02, 9.97422822e-03,
          3.22254747e-02, 1.51637886e-02, 1.70844253e-02, 1.65716000e-02,
          3.60434353e-02, 7.22768009e-02, 2.02940404e-02, 3.79297249e-02,
          6.37393957e-03, 2.93783210e-02, 1.06587671e-02, 2.78317127e-02,
          2.48533040e-02, 8.02410990e-02, 1.95043445e-01, 2.89016277e-01,
          3.85788977e-01, 7.93840289e-02, 7.62779415e-02, 3.37020494e-02,
          3.02078314e-02, 4.42530736e-02, 1.39242977e-01, 2.73609519e-01,
          3.85788977e-01, 3.85788977e-01, 1.40748546e-01, 1.93535060e-01,
          2.42333010e-01, 2.35030428e-01, 1.82803333e-01, 3.03526431e-01,
          8.12480003e-02, 1.34407096e-02, 2.88684648e-02, 3.06683755e-03,
          6.06897250e-02, 1.28194615e-02, 4.32742611e-02, 3.14421467e-02,
          8.49788338e-02, 4.73983586e-02, 8.18767585e-03, 1.76903531e-02,
          4.39361017e-03, 7.22294748e-02, 7.13813677e-03, 2.01959331e-02,
          2.33141538e-02, 4.92877252e-02, 2.75600851e-01, 2.07602084e-01,
          3.57448310e-01, 1.82491452e-01, 2.78764576e-01, 4.31994975e-01,
          4.19732779e-01, 3.13026577e-01, 3.34236681e-01, 5.57668358e-02,
          2.29777079e-02, 2.20369697e-02, 4.27334122e-02, 9.29063857e-02,
          7.42033944e-02, 7.43774995e-02, 5.39764091e-02, 6.30126372e-02,
          4.24408428e-02, 1.90237127e-02, 2.79845465e-02, 1.49174202e-02,
          6.50499910e-02, 4.37494405e-02, 4.41900566e-02, 4.95094843e-02,
          4.23820876e-02, 6.60143271e-02, 3.21770422e-02, 7.62485489e-02,
          2.93169413e-02, 8.89831930e-02, 4.42971326e-02, 3.40207666e-02,
          8.43409523e-02, 7.70870373e-02, 1.23050816e-01, 1.27241150e-01,
          4.06346358e-02, 1.23339295e-02, 1.08392999e-01, 4.50317897e-02,
